svm_type c_svc
kernel_type rbf
gamma 0.000488281
nr_class 2
total_sv 68
rho -11.8651
label 0 1
probA -2.87028
probB -0.421085
nr_sv 35 33
SV
32768 1:0.46 2:0.35 3:0.35 4:0.32 5:0.36 6:0.41 7:0.37 8:0.28 9:0.38 10:0.3 11:0.31 12:0.38 13:0.38 14:0.28 15:0.31 16:0.42 17:0.4 18:0.2 19:0.28 20:0.33 21:0.48 22:0.96 23:0.07 24:0.07 25:0.1 26:0.12 
32768 1:0.36 2:0.36 3:0.38 4:0.33 5:0.2 6:0.39 7:0.36 8:0.24 9:0.33 10:0.3 11:0.3 12:0.37 13:0.29 14:0.29 15:0.32 16:0.44 17:0.39 18:0.14 19:0.3 20:0.3 21:0.47 22:0.97 23:0.05 24:0.06 25:0.07 26:0.06 
32768 1:0.3 2:0.38 3:0.32 4:0.33 5:0.19 6:0.42 7:0.44 8:0.21 9:0.28 10:0.31 11:0.33 12:0.45 13:0.32 14:0.25 15:0.21 16:0.38 17:0.31 18:0.1 19:0.2 20:0.33 21:0.48 22:0.54 23:0.12 24:0.51 25:0.12 26:0.33 
32768 1:0.47 2:0.38 3:0.31 4:0.25 5:0.21 6:0.35 7:0.3 8:0.33 9:0.25 10:0.32 11:0.31 12:0.4 13:0.32 14:0.23 15:0.29 16:0.47 17:0.43 18:0.13 19:0.21 20:0.36 21:0.49 22:0.98 23:0.14 24:0.1 25:0.04 26:0.64 
13773.23007872685 1:0.33 2:0.4 3:0.43 4:0.44 5:0.16 6:0.51 7:0.51 8:0.32 9:0.32 10:0.28 11:0.26 12:0.5 13:0.31 14:0.27 15:0.29 16:0.43 17:0.37 18:0.2 19:0.32 20:0.28 21:0.4 22:0.92 23:0.32 24:0.23 25:0.12 26:0.16 
32768 1:0.34 2:0.32 3:0.29 4:0.28 5:0.18 6:0.32 7:0.32 8:0.21 9:0.22 10:0.35 11:0.34 12:0.35 13:0.34 14:0.23 15:0.23 16:0.34 17:0.31 18:0.08 19:0.18 20:0.35 21:0.5 22:0.97 23:0.1 24:0.08 25:0.04 26:0.46 
32768 1:0.41 2:0.31 3:0.3 4:0.27 5:0.11 6:0.35 7:0.35 8:0.23 9:0.21 10:0.29 11:0.28 12:0.34 13:0.29 14:0.19 15:0.2 16:0.38 17:0.33 18:0.07 19:0.18 20:0.33 21:0.49 22:0.97 23:0.13 24:0.08 25:0.14 26:0.09 
32768 1:0.47 2:0.35 3:0.34 4:0.32 5:0.34 6:0.41 7:0.36 8:0.28 9:0.37 10:0.3 11:0.3 12:0.38 13:0.38 14:0.28 15:0.3 16:0.42 17:0.4 18:0.2 19:0.28 20:0.32 21:0.49 22:0.92 23:0.08 24:0.08 25:0.1 26:0.15 
32768 1:0.36 2:0.39 3:0.36 4:0.35 5:0.14 6:0.44 7:0.43 8:0.21 9:0.31 10:0.28 11:0.3 12:0.43 13:0.33 14:0.27 15:0.27 16:0.4 17:0.36 18:0.17 19:0.28 20:0.29 21:0.41 22:0.93 23:0.31 24:0.24 25:0.09 26:0.47 
32768 1:0.37 2:0.23 3:0.25 4:0.16 5:0.12 6:0.28 7:0.2 8:0.26 9:0.16 10:0.37 11:0.34 12:0.23 13:0.34 14:0.29 15:0.18 16:0.37 17:0.34 18:0.14 19:0.21 20:0.36 21:0.52 22:0.95 23:0.14 24:0.14 25:0.93 26:0.13 
32768 1:0.38 2:0.34 3:0.33 4:0.3 5:0.17 6:0.37 7:0.35 8:0.21 9:0.26 10:0.32 11:0.32 12:0.38 13:0.33 14:0.29 15:0.21 16:0.38 17:0.35 18:0.17 19:0.27 20:0.31 21:0.46 22:0.95 23:0.12 24:0.11 25:0.25 26:0.77 
32768 1:0.42 2:0.37 3:0.37 4:0.33 5:0.17 6:0.37 7:0.38 8:0.31 9:0.26 10:0.27 11:0.27 12:0.4 13:0.31 14:0.24 15:0.32 16:0.49 17:0.4 18:0.16 19:0.24 20:0.31 21:0.44 22:0.92 23:0.13 24:0.07 25:0.03 26:0.46 
11587.12914041407 1:0.41 2:0.36 3:0.36 4:0.34 5:0.26 6:0.42 7:0.39 8:0.28 9:0.41 10:0.31 11:0.31 12:0.35 13:0.31 14:0.27 15:0.37 16:0.46 17:0.44 18:0.22 19:0.25 20:0.35 21:0.46 22:0.89 23:0.12 24:0.13 25:0.08 26:0.62 
32768 1:0.37 2:0.34 3:0.29 4:0.31 5:0.28 6:0.33 7:0.35 8:0.25 9:0.34 10:0.32 11:0.32 12:0.35 13:0.35 14:0.22 15:0.2 16:0.36 17:0.33 18:0.15 19:0.21 20:0.34 21:0.49 22:0.94 23:0.08 24:0.41 25:0.75 26:0.55 
17630.00973026937 1:0.47 2:0.32 3:0.28 4:0.3 5:0.14 6:0.36 7:0.37 8:0.29 9:0.26 10:0.35 11:0.38 12:0.32 13:0.37 14:0.25 15:0.22 16:0.41 17:0.36 18:0.12 19:0.19 20:0.38 21:0.51 22:0.93 23:0.26 24:0.18 25:0.6 26:0.17 
32768 1:0.45 2:0.34 3:0.34 4:0.33 5:0.34 6:0.4 7:0.36 8:0.28 9:0.36 10:0.3 11:0.3 12:0.37 13:0.37 14:0.26 15:0.3 16:0.41 17:0.39 18:0.18 19:0.27 20:0.32 21:0.47 22:0.95 23:0.07 24:0.06 25:0.06 26:0.11 
4831.734651705659 1:0.44 2:0.27 3:0.22 4:0.19 5:0.16 6:0.27 7:0.24 8:0.29 9:0.2 10:0.43 11:0.42 12:0.22 13:0.39 14:0.35 15:0.2 16:0.39 17:0.35 18:0.19 19:0.22 20:0.43 21:0.54 22:0.93 23:0.09 24:0.08 25:0.73 26:0.07 
11861.9439327575 1:0.5 2:0.32 3:0.32 4:0.27 5:0.21 6:0.37 7:0.36 8:0.3 9:0.23 10:0.29 11:0.28 12:0.38 13:0.33 14:0.19 15:0.27 16:0.48 17:0.39 18:0.11 19:0.2 20:0.35 21:0.49 22:0.97 23:0.67 24:0.26 25:0.27 26:0.58 
25975.6030408314 1:0.41 2:0.26 3:0.33 4:0.27 5:0.18 6:0.37 7:0.33 8:0.24 9:0.21 10:0.37 11:0.34 12:0.35 13:0.34 14:0.27 15:0.26 16:0.43 17:0.41 18:0.15 19:0.24 20:0.39 21:0.51 22:0.98 23:0.5 24:0.3 25:0.8 26:0.58 
32768 1:0.39 2:0.36 3:0.33 4:0.33 5:0.13 6:0.41 7:0.42 8:0.25 9:0.24 10:0.29 11:0.29 12:0.42 13:0.32 14:0.19 15:0.22 16:0.4 17:0.35 18:0.09 19:0.18 20:0.3 21:0.44 22:0.98 23:0.28 24:0.13 25:0.09 26:0.78 
32768 1:0.45 2:0.27 3:0.29 4:0.32 5:0.11 6:0.42 7:0.42 8:0.28 9:0.15 10:0.31 11:0.28 12:0.42 13:0.3 14:0.23 15:0.24 16:0.38 17:0.37 18:0.07 19:0.17 20:0.35 21:0.46 22:0.96 23:0.25 24:0.36 25:0.01 26:0.4 
32768 1:0.48 2:0.38 3:0.43 4:0.39 5:0.18 6:0.47 7:0.44 8:0.32 9:0.25 10:0.28 11:0.27 12:0.39 13:0.28 14:0.22 15:0.38 16:0.57 17:0.53 18:0.12 19:0.22 20:0.33 21:0.43 22:0.98 23:0.28 24:0.17 25:0.04 26:0.24 
32768 1:0.42 2:0.35 3:0.4 4:0.3 5:0.18 6:0.41 7:0.36 8:0.33 9:0.25 10:0.3 11:0.31 12:0.37 13:0.31 14:0.28 15:0.33 16:0.5 17:0.45 18:0.14 19:0.24 20:0.33 21:0.49 22:0.83 23:0.13 24:0.02 25:0.04 26:0.21 
32768 1:0.39 2:0.27 3:0.25 4:0.24 5:0.17 6:0.29 7:0.27 8:0.2 9:0.2 10:0.3 11:0.27 12:0.29 13:0.27 14:0.16 15:0.22 16:0.33 17:0.28 18:0.07 19:0.15 20:0.33 21:0.52 22:0.95 23:0.02 24:0.63 25:0.05 26:0.04 
32768 1:0.27 2:0.27 3:0.27 4:0.24 5:0.14 6:0.25 7:0.27 8:0.18 9:0.25 10:0.32 11:0.34 12:0.29 13:0.34 14:0.25 15:0.17 16:0.31 17:0.28 18:0.12 19:0.18 20:0.3 21:0.47 22:0.97 23:0.16 24:0.13 25:0.42 26:0.06 
18833.10765215863 1:0.39 2:0.34 3:0.36 4:0.32 5:0.2 6:0.41 7:0.39 8:0.26 9:0.33 10:0.3 11:0.32 12:0.4 13:0.35 14:0.28 15:0.23 16:0.47 17:0.41 18:0.19 19:0.29 20:0.33 21:0.43 22:0.84 23:0.84 24:0.62 25:0.48 26:0.68 
1577.289160887909 1:0.36 2:0.22 3:0.27 4:0.21 5:0.14 6:0.29 7:0.23 8:0.26 9:0.14 10:0.41 11:0.37 12:0.26 13:0.35 14:0.31 15:0.25 16:0.41 17:0.39 18:0.16 19:0.25 20:0.38 21:0.54 22:0.14 23:0.02 24:0.34 25:0.2 26:0.01 
32768 1:0.36 2:0.23 3:0.27 4:0.21 5:0.1 6:0.31 7:0.22 8:0.28 9:0.14 10:0.41 11:0.38 12:0.27 13:0.35 14:0.31 15:0.24 16:0.4 17:0.38 18:0.14 19:0.26 20:0.39 21:0.53 22:0.52 23:0.03 24:0.25 25:0.4 26:0.01 
32768 1:0.36 2:0.22 3:0.27 4:0.21 5:0.13 6:0.29 7:0.22 8:0.27 9:0.14 10:0.41 11:0.37 12:0.27 13:0.35 14:0.31 15:0.25 16:0.42 17:0.39 18:0.16 19:0.25 20:0.38 21:0.53 22:0.14 23:0.02 24:0.42 25:0.2 26:0.01 
32768 1:0.46 2:0.37 3:0.32 4:0.29 5:0.08 6:0.41 7:0.39 8:0.21 9:0.19 10:0.34 11:0.35 12:0.43 13:0.3 14:0.21 15:0.17 16:0.42 17:0.37 18:0.05 19:0.17 20:0.36 21:0.49 22:0.95 23:0.34 24:0.21 25:0.16 26:0.45 
12177.40732646218 1:0.4 2:0.35 3:0.49 4:0.36 5:0.17 6:0.3 7:0.27 8:0.28 9:0.19 10:0.22 11:0.31 12:0.26 13:0.23 14:0.21 15:0.1 16:0.44 17:0.35 18:0.13 19:0.14 20:0.23 21:0.46 22:0.92 23:0.74 24:0.1 25:0.02 26:0.14 
32768 1:0.34 2:0.32 3:0.36 4:0.31 5:0.17 6:0.35 7:0.34 8:0.25 9:0.23 10:0.34 11:0.36 12:0.36 13:0.36 14:0.28 15:0.23 16:0.43 17:0.36 18:0.13 19:0.26 20:0.33 21:0.48 22:0.96 23:0.6 24:0.27 25:0.4 26:0.5 
32768 1:0.33 2:0.31 3:0.35 4:0.3 5:0.16 6:0.35 7:0.34 8:0.22 9:0.25 10:0.34 11:0.35 12:0.35 13:0.36 14:0.27 15:0.22 16:0.42 17:0.36 18:0.13 19:0.24 20:0.33 21:0.49 22:0.96 23:0.63 24:0.34 25:0.41 26:0.6 
29026.39475290518 1:0.33 2:0.32 3:0.36 4:0.3 5:0.17 6:0.35 7:0.35 8:0.24 9:0.24 10:0.34 11:0.36 12:0.35 13:0.35 14:0.28 15:0.22 16:0.42 17:0.35 18:0.12 19:0.25 20:0.32 21:0.49 22:0.93 23:0.61 24:0.22 25:0.38 26:0.49 
32768 1:0.4 2:0.46 3:0.47 4:0.42 5:0.19 6:0.57 7:0.61 8:0.23 9:0.35 10:0.29 11:0.36 12:0.58 13:0.36 14:0.19 15:0.25 16:0.51 17:0.4 18:0.11 19:0.18 20:0.3 21:0.41 22:0.98 23:0.88 24:0.8 25:0.38 26:0.75 
-32768 1:0.41 2:0.33 3:0.34 4:0.3 5:0.18 6:0.38 7:0.38 8:0.29 9:0.25 10:0.34 11:0.34 12:0.39 13:0.36 14:0.24 15:0.27 16:0.42 17:0.38 18:0.13 19:0.24 20:0.37 21:0.49 22:0.87 23:0.01 24:0.03 25:0.01 26:0 
-32768 1:0.39 2:0.32 3:0.35 4:0.29 5:0.19 6:0.38 7:0.37 8:0.24 9:0.26 10:0.33 11:0.33 12:0.37 13:0.37 14:0.24 15:0.2 16:0.42 17:0.35 18:0.13 19:0.23 20:0.35 21:0.47 22:0.94 23:0.21 24:0.41 25:0.62 26:0.14 
-32768 1:0.28 2:0.21 3:0.21 4:0.21 5:0.14 6:0.27 7:0.27 8:0.18 9:0.2 10:0.33 11:0.3 12:0.22 13:0.31 14:0.2 15:0.15 16:0.29 17:0.26 18:0.1 19:0.2 20:0.31 21:0.52 22:0.76 23:0.13 24:0.23 25:0.03 26:0.03 
-32768 1:0.36 2:0.28 3:0.31 4:0.27 5:0.17 6:0.33 7:0.32 8:0.23 9:0.24 10:0.28 11:0.29 12:0.31 13:0.29 14:0.21 15:0.23 16:0.39 17:0.32 18:0.12 19:0.19 20:0.32 21:0.49 22:0.91 23:0.05 24:0.08 25:0.06 26:0.09 
-5944.027537103328 1:0.45 2:0.38 3:0.39 4:0.32 5:0.21 6:0.41 7:0.41 8:0.27 9:0.27 10:0.34 11:0.33 12:0.44 13:0.35 14:0.27 15:0.25 16:0.53 17:0.46 18:0.14 19:0.25 20:0.38 21:0.47 22:0.97 23:0.03 24:0.4 25:0.77 26:0.65 
-32768 1:0.38 2:0.29 3:0.31 4:0.27 5:0.17 6:0.33 7:0.31 8:0.23 9:0.25 10:0.3 11:0.29 12:0.31 13:0.3 14:0.21 15:0.23 16:0.4 17:0.33 18:0.12 19:0.2 20:0.33 21:0.48 22:0.95 23:0.03 24:0.09 25:0.04 26:0.07 
-32768 1:0.41 2:0.31 3:0.37 4:0.28 5:0.18 6:0.37 7:0.35 8:0.28 9:0.26 10:0.31 11:0.29 12:0.36 13:0.34 14:0.23 15:0.2 16:0.46 17:0.4 18:0.13 19:0.24 20:0.34 21:0.48 22:0.95 23:0.77 24:0.52 25:0.74 26:0.76 
-32768 1:0.38 2:0.32 3:0.36 4:0.3 5:0.2 6:0.39 7:0.38 8:0.23 9:0.26 10:0.31 11:0.32 12:0.37 13:0.36 14:0.23 15:0.22 16:0.43 17:0.36 18:0.13 19:0.22 20:0.34 21:0.46 22:0.93 23:0.36 24:0.32 25:0.69 26:0.14 
-32768 1:0.44 2:0.39 3:0.34 4:0.33 5:0.21 6:0.4 7:0.38 8:0.29 9:0.25 10:0.38 11:0.36 12:0.44 13:0.36 14:0.29 15:0.28 16:0.5 17:0.45 18:0.14 19:0.27 20:0.41 21:0.5 22:0.89 23:0.02 24:0.32 25:0.37 26:0.68 
-32768 1:0.43 2:0.37 3:0.34 4:0.32 5:0.21 6:0.41 7:0.38 8:0.3 9:0.26 10:0.38 11:0.36 12:0.42 13:0.37 14:0.29 15:0.29 16:0.5 17:0.46 18:0.14 19:0.28 20:0.42 21:0.49 22:0.86 23:0.02 24:0.19 25:0.24 26:0.89 
-19529.0676448458 1:0.34 2:0.27 3:0.3 4:0.27 5:0.16 6:0.34 7:0.33 8:0.22 9:0.23 10:0.32 11:0.3 12:0.3 13:0.33 14:0.21 15:0.21 16:0.38 17:0.33 18:0.12 19:0.21 20:0.32 21:0.47 22:0.95 23:0.16 24:0.24 25:0.25 26:0.17 
-22071.52960725377 1:0.39 2:0.41 3:0.35 4:0.32 5:0.16 6:0.44 7:0.43 8:0.25 9:0.3 10:0.31 11:0.33 12:0.45 13:0.36 14:0.24 15:0.26 16:0.44 17:0.41 18:0.14 19:0.26 20:0.34 21:0.43 22:0.98 23:0.16 24:0.15 25:0.05 26:0.09 
-32768 1:0.35 2:0.34 3:0.38 4:0.33 5:0.16 6:0.41 7:0.39 8:0.22 9:0.32 10:0.35 11:0.34 12:0.39 13:0.38 14:0.29 15:0.18 16:0.43 17:0.4 18:0.16 19:0.3 20:0.35 21:0.47 22:0.6 23:0.43 24:0.41 25:0.41 26:0.44 
-32768 1:0.35 2:0.26 3:0.29 4:0.28 5:0.17 6:0.34 7:0.34 8:0.22 9:0.23 10:0.32 11:0.32 12:0.3 13:0.34 14:0.24 15:0.22 16:0.38 17:0.34 18:0.13 19:0.22 20:0.32 21:0.49 22:0.97 23:0.15 24:0.14 25:0.18 26:0.16 
-13712.97485550052 1:0.42 2:0.41 3:0.34 4:0.31 5:0.21 6:0.41 7:0.39 8:0.29 9:0.27 10:0.36 11:0.35 12:0.45 13:0.35 14:0.29 15:0.27 16:0.48 17:0.44 18:0.14 19:0.27 20:0.41 21:0.48 22:0.95 23:0.01 24:0.21 25:0.06 26:0.77 
-24827.92670207077 1:0.4 2:0.34 3:0.36 4:0.32 5:0.17 6:0.41 7:0.4 8:0.26 9:0.27 10:0.34 11:0.33 12:0.4 13:0.37 14:0.23 15:0.21 16:0.44 17:0.4 18:0.11 19:0.22 20:0.36 21:0.48 22:0.94 23:0.61 24:0.06 25:0.07 26:0.7 
-14907.16053332761 1:0.41 2:0.3 3:0.38 4:0.29 5:0.2 6:0.37 7:0.34 8:0.29 9:0.27 10:0.32 11:0.3 12:0.35 13:0.34 14:0.23 15:0.21 16:0.46 17:0.39 18:0.12 19:0.23 20:0.35 21:0.48 22:0.93 23:0.07 24:0.48 25:0.81 26:0.7 
-32768 1:0.34 2:0.28 3:0.32 4:0.28 5:0.17 6:0.35 7:0.34 8:0.24 9:0.26 10:0.3 11:0.29 12:0.32 13:0.33 14:0.22 15:0.19 16:0.39 17:0.33 18:0.13 19:0.22 20:0.3 21:0.45 22:0.97 23:0.26 24:0.16 25:0.28 26:0.24 
-26661.40201844706 1:0.44 2:0.31 3:0.37 4:0.32 5:0.18 6:0.36 7:0.36 8:0.28 9:0.25 10:0.34 11:0.33 12:0.37 13:0.35 14:0.26 15:0.21 16:0.49 17:0.42 18:0.14 19:0.25 20:0.36 21:0.49 22:0.06 23:0.03 24:0.03 25:0.02 26:0.02 
-32768 1:0.39 2:0.28 3:0.32 4:0.28 5:0.17 6:0.34 7:0.31 8:0.25 9:0.24 10:0.28 11:0.28 12:0.31 13:0.29 14:0.2 15:0.24 16:0.41 17:0.34 18:0.11 19:0.19 20:0.32 21:0.49 22:0.96 23:0.03 24:0.1 25:0.04 26:0.05 
-32768 1:0.38 2:0.29 3:0.32 4:0.28 5:0.18 6:0.33 7:0.3 8:0.24 9:0.25 10:0.29 11:0.28 12:0.3 13:0.29 14:0.2 15:0.25 16:0.4 17:0.34 18:0.12 19:0.19 20:0.32 21:0.49 22:0.93 23:0.03 24:0.05 25:0.08 26:0.07 
-32768 1:0.39 2:0.29 3:0.32 4:0.28 5:0.17 6:0.33 7:0.31 8:0.25 9:0.24 10:0.28 11:0.28 12:0.32 13:0.29 14:0.2 15:0.25 16:0.41 17:0.35 18:0.11 19:0.2 20:0.32 21:0.48 22:0.96 23:0.04 24:0.09 25:0.1 26:0.09 
-32768 1:0.38 2:0.29 3:0.32 4:0.28 5:0.17 6:0.34 7:0.3 8:0.24 9:0.24 10:0.28 11:0.28 12:0.31 13:0.29 14:0.2 15:0.25 16:0.4 17:0.34 18:0.11 19:0.19 20:0.32 21:0.49 22:0.93 23:0.04 24:0.05 25:0.1 26:0.06 
-32768 1:0.38 2:0.29 3:0.34 4:0.27 5:0.19 6:0.36 7:0.35 8:0.23 9:0.26 10:0.31 11:0.31 12:0.34 13:0.34 14:0.25 15:0.21 16:0.42 17:0.38 18:0.16 19:0.25 20:0.34 21:0.48 22:0.85 23:0.41 24:0.25 25:0.16 26:0.73 
-32768 1:0.39 2:0.3 3:0.38 4:0.29 5:0.17 6:0.38 7:0.37 8:0.24 9:0.27 10:0.31 11:0.31 12:0.38 13:0.35 14:0.29 15:0.22 16:0.47 17:0.41 18:0.16 19:0.27 20:0.33 21:0.48 22:0.95 23:0.76 24:0.35 25:0.08 26:0.06 
-32768 1:0.39 2:0.37 3:0.36 4:0.33 5:0.17 6:0.42 7:0.41 8:0.25 9:0.29 10:0.3 11:0.3 12:0.42 13:0.34 14:0.23 15:0.31 16:0.45 17:0.4 18:0.13 19:0.24 20:0.33 21:0.44 22:0.97 23:0.35 24:0.2 25:0.09 26:0.23 
-32768 1:0.41 2:0.38 3:0.37 4:0.33 5:0.17 6:0.42 7:0.41 8:0.25 9:0.29 10:0.32 11:0.32 12:0.43 13:0.35 14:0.23 15:0.29 16:0.46 17:0.41 18:0.13 19:0.25 20:0.34 21:0.44 22:0.97 23:0.43 24:0.26 25:0.12 26:0.34 
-32768 1:0.38 2:0.29 3:0.34 4:0.27 5:0.19 6:0.36 7:0.34 8:0.23 9:0.26 10:0.31 11:0.31 12:0.34 13:0.34 14:0.26 15:0.21 16:0.42 17:0.38 18:0.16 19:0.25 20:0.34 21:0.47 22:0.93 23:0.34 24:0.25 25:0.26 26:0.61 
-32768 1:0.41 2:0.39 3:0.37 4:0.31 5:0.2 6:0.41 7:0.4 8:0.29 9:0.26 10:0.36 11:0.35 12:0.44 13:0.38 14:0.26 15:0.25 16:0.47 17:0.43 18:0.15 19:0.27 20:0.4 21:0.45 22:0.96 23:0.49 24:0.5 25:0.39 26:0.86 
-32768 1:0.4 2:0.34 3:0.35 4:0.31 5:0.17 6:0.41 7:0.4 8:0.25 9:0.26 10:0.34 11:0.33 12:0.39 13:0.37 14:0.22 15:0.2 16:0.43 17:0.39 18:0.11 19:0.21 20:0.36 21:0.46 22:0.97 23:0.69 24:0.57 25:0.05 26:0.68 
-32768 1:0.41 2:0.38 3:0.34 4:0.31 5:0.2 6:0.41 7:0.41 8:0.29 9:0.27 10:0.35 11:0.34 12:0.45 13:0.38 14:0.26 15:0.28 16:0.46 17:0.42 18:0.16 19:0.26 20:0.39 21:0.48 22:0.85 23:0.05 24:0.28 25:0.57 26:0.38 
-32768 1:0.42 2:0.36 3:0.37 4:0.32 5:0.17 6:0.42 7:0.4 8:0.26 9:0.29 10:0.29 11:0.3 12:0.41 13:0.34 14:0.23 15:0.21 16:0.46 17:0.38 18:0.16 19:0.25 20:0.32 21:0.44 22:0.93 23:0.08 24:0.03 25:0.6 26:0.64 
-19619.76056856991 1:0.36 2:0.33 3:0.37 4:0.31 5:0.18 6:0.41 7:0.39 8:0.21 9:0.27 10:0.33 11:0.34 12:0.39 13:0.4 14:0.24 15:0.2 16:0.42 17:0.36 18:0.14 19:0.24 20:0.34 21:0.47 22:0.95 23:0.73 24:0.58 25:0.06 26:0.7 
