svm_type c_svc
kernel_type rbf
gamma 2
nr_class 2
total_sv 65
rho -1.41264
label 0 1
probA -3.65446
probB -0.679808
nr_sv 45 20
SV
1.115438073708497 1:0.42 2:0.27 3:0.3 4:0.24 5:0.28 6:0.31 7:0.29 8:0.26 9:0.25 10:0.32 11:0.29 12:0.34 13:0.3 14:0.21 15:0.25 16:0.41 17:0.36 18:0.11 19:0.2 20:0.35 21:0.51 22:0.95 23:0.15 24:0.04 25:0.75 26:0.1 
8 1:0.36 2:0.36 3:0.38 4:0.33 5:0.2 6:0.39 7:0.36 8:0.24 9:0.33 10:0.3 11:0.3 12:0.37 13:0.29 14:0.29 15:0.32 16:0.44 17:0.39 18:0.14 19:0.3 20:0.3 21:0.47 22:0.97 23:0.05 24:0.06 25:0.07 26:0.06 
0.1967396229046975 1:0.3 2:0.38 3:0.32 4:0.33 5:0.19 6:0.42 7:0.44 8:0.21 9:0.28 10:0.31 11:0.33 12:0.45 13:0.32 14:0.25 15:0.21 16:0.38 17:0.31 18:0.1 19:0.2 20:0.33 21:0.48 22:0.54 23:0.12 24:0.51 25:0.12 26:0.33 
5.718805096454971 1:0.46 2:0.41 3:0.36 4:0.4 5:0.23 6:0.43 7:0.43 8:0.33 9:0.21 10:0.34 11:0.36 12:0.41 13:0.36 14:0.33 15:0.37 16:0.46 17:0.41 18:0.23 19:0.3 20:0.38 21:0.47 22:0.95 23:0.06 24:0.03 25:0.06 26:0.03 
3.187482691618021 1:0.41 2:0.31 3:0.3 4:0.27 5:0.11 6:0.35 7:0.35 8:0.23 9:0.21 10:0.29 11:0.28 12:0.34 13:0.29 14:0.19 15:0.2 16:0.38 17:0.33 18:0.07 19:0.18 20:0.33 21:0.49 22:0.97 23:0.13 24:0.08 25:0.14 26:0.09 
3.392132897868481 1:0.5 2:0.36 3:0.33 4:0.31 5:0.16 6:0.43 7:0.4 8:0.36 9:0.23 10:0.33 11:0.36 12:0.42 13:0.35 14:0.32 15:0.36 16:0.5 17:0.46 18:0.15 19:0.27 20:0.37 21:0.47 22:0.88 23:0.1 24:0.05 25:0.27 26:0.05 
1.492540157721438 1:0.43 2:0.34 3:0.33 4:0.33 5:0.09 6:0.36 7:0.37 8:0.28 9:0.25 10:0.32 11:0.34 12:0.35 13:0.32 14:0.27 15:0.26 16:0.41 17:0.34 18:0.16 19:0.27 20:0.33 21:0.47 22:0.94 23:0.21 24:0.41 25:0.62 26:0.14 
3.697566405803596 1:0.38 2:0.34 3:0.33 4:0.3 5:0.17 6:0.37 7:0.35 8:0.21 9:0.26 10:0.32 11:0.32 12:0.38 13:0.33 14:0.29 15:0.21 16:0.38 17:0.35 18:0.17 19:0.27 20:0.31 21:0.46 22:0.95 23:0.12 24:0.11 25:0.25 26:0.77 
3.407094777728291 1:0.35 2:0.38 3:0.33 4:0.31 5:0.2 6:0.38 7:0.37 8:0.26 9:0.27 10:0.33 11:0.37 12:0.39 13:0.34 14:0.28 15:0.33 16:0.38 17:0.35 18:0.14 19:0.25 20:0.33 21:0.48 22:0.97 23:0.03 24:0.21 25:0.68 26:0.11 
0.3696479995107332 1:0.42 2:0.37 3:0.37 4:0.33 5:0.17 6:0.37 7:0.38 8:0.31 9:0.26 10:0.27 11:0.27 12:0.4 13:0.31 14:0.24 15:0.32 16:0.49 17:0.4 18:0.16 19:0.24 20:0.31 21:0.44 22:0.92 23:0.13 24:0.07 25:0.03 26:0.46 
3.06743716529895 1:0.39 2:0.27 3:0.43 4:0.34 5:0.17 6:0.31 7:0.39 8:0.23 9:0.34 10:0.29 11:0.31 12:0.38 13:0.23 14:0.17 15:0.16 16:0.31 17:0.27 18:0.15 19:0.26 20:0.29 21:0.46 22:0.81 23:0.15 24:0.47 25:0.26 26:0.68 
5.593736807472466 1:0.37 2:0.34 3:0.29 4:0.31 5:0.28 6:0.33 7:0.35 8:0.25 9:0.34 10:0.32 11:0.32 12:0.35 13:0.35 14:0.22 15:0.2 16:0.36 17:0.33 18:0.15 19:0.21 20:0.34 21:0.49 22:0.94 23:0.08 24:0.41 25:0.75 26:0.55 
0.3534353200802762 1:0.35 2:0.24 3:0.26 4:0.18 5:0.1 6:0.31 7:0.22 8:0.25 9:0.18 10:0.38 11:0.35 12:0.24 13:0.35 14:0.31 15:0.18 16:0.35 17:0.33 18:0.14 19:0.22 20:0.36 21:0.52 22:0.96 23:0.14 24:0.17 25:0.95 26:0.16 
0.0400287508085092 1:0.45 2:0.36 3:0.33 4:0.3 5:0.24 6:0.4 7:0.4 8:0.29 9:0.27 10:0.28 11:0.29 12:0.43 13:0.28 14:0.23 15:0.37 16:0.52 17:0.4 18:0.12 19:0.18 20:0.33 21:0.47 22:0.97 23:0.03 24:0.4 25:0.77 26:0.65 
2.912153078865977 1:0.45 2:0.34 3:0.27 4:0.24 5:0.19 6:0.33 7:0.28 8:0.25 9:0.21 10:0.3 11:0.28 12:0.33 13:0.27 14:0.21 15:0.33 16:0.45 17:0.38 18:0.11 19:0.16 20:0.35 21:0.48 22:0.97 23:0.03 24:0.53 25:0.08 26:0.81 
0.7736133438210152 1:0.41 2:0.25 3:0.21 4:0.22 5:0.07 6:0.28 7:0.27 8:0.24 9:0.19 10:0.31 11:0.3 12:0.26 13:0.26 14:0.19 15:0.18 16:0.31 17:0.3 18:0.13 19:0.13 20:0.34 21:0.52 22:0.98 23:0.05 24:0.6 25:0.69 26:0.08 
2.046121936345492 1:0.5 2:0.47 3:0.36 4:0.39 5:0.16 6:0.5 7:0.49 8:0.28 9:0.34 10:0.39 11:0.4 12:0.42 13:0.37 14:0.3 15:0.25 16:0.43 17:0.4 18:0.2 19:0.25 20:0.4 21:0.49 22:0.97 23:0.14 24:0.08 25:0.75 26:0.58 
1.66174140448953 1:0.29 2:0.35 3:0.35 4:0.31 5:0.31 6:0.27 7:0.33 8:0.21 9:0.34 10:0.35 11:0.38 12:0.38 13:0.42 14:0.32 15:0.14 16:0.38 17:0.27 18:0.14 19:0.24 20:0.36 21:0.46 22:0.93 23:0.36 24:0.32 25:0.69 26:0.14 
0.1143188932790713 1:0.33 2:0.28 3:0.29 4:0.3 5:0.1 6:0.36 7:0.37 8:0.18 9:0.2 10:0.27 11:0.27 12:0.32 13:0.29 14:0.18 15:0.16 16:0.36 17:0.31 18:0.09 19:0.18 20:0.28 21:0.46 22:0.95 23:0.29 24:0.28 25:0.15 26:0.28 
6.378453372771956 1:0.44 2:0.35 3:0.37 4:0.29 5:0.18 6:0.4 7:0.34 8:0.25 9:0.25 10:0.34 11:0.37 12:0.38 13:0.39 14:0.27 15:0.37 16:0.49 17:0.45 18:0.11 19:0.21 20:0.37 21:0.48 22:0.97 23:0.41 24:0.69 25:0.12 26:0.32 
1.766284029334797 1:0.42 2:0.28 3:0.38 4:0.32 5:0.14 6:0.39 7:0.35 8:0.28 9:0.21 10:0.33 11:0.32 12:0.37 13:0.32 14:0.27 15:0.25 16:0.39 17:0.4 18:0.17 19:0.25 20:0.33 21:0.48 22:0.67 23:0.22 24:0.4 25:0.46 26:0.35 
2.821879827267112 1:0.4 2:0.3 3:0.29 4:0.23 5:0.21 6:0.34 7:0.28 8:0.21 9:0.25 10:0.37 11:0.43 12:0.34 13:0.37 14:0.38 15:0.32 16:0.44 17:0.4 18:0.21 19:0.32 20:0.34 21:0.5 22:0.96 23:0.04 24:0.08 25:0.93 26:0.06 
2.184104353004904 1:0.43 2:0.27 3:0.24 4:0.27 5:0.15 6:0.31 7:0.31 8:0.27 9:0.23 10:0.32 11:0.3 12:0.28 13:0.29 14:0.18 15:0.19 16:0.33 17:0.32 18:0.08 19:0.16 20:0.35 21:0.52 22:0.96 23:0.03 24:0.03 25:0.05 26:0.05 
0.1476236666283295 1:0.49 2:0.38 3:0.34 4:0.37 5:0.21 6:0.38 7:0.38 8:0.32 9:0.3 10:0.36 11:0.38 12:0.39 13:0.36 14:0.34 15:0.37 16:0.49 17:0.42 18:0.2 19:0.25 20:0.4 21:0.49 22:0.06 23:0.03 24:0.03 25:0.02 26:0.02 
3.194038812035004 1:0.41 2:0.35 3:0.32 4:0.32 5:0.21 6:0.41 7:0.44 8:0.24 9:0.33 10:0.33 11:0.29 12:0.45 13:0.33 14:0.25 15:0.27 16:0.42 17:0.37 18:0.15 19:0.22 20:0.35 21:0.47 22:0.96 23:0.17 24:0.26 25:0.13 26:0.62 
2.38243122960919 1:0.45 2:0.38 3:0.37 4:0.36 5:0.23 6:0.4 7:0.39 8:0.32 9:0.32 10:0.35 11:0.35 12:0.42 13:0.36 14:0.34 15:0.34 16:0.5 17:0.41 18:0.2 19:0.26 20:0.38 21:0.48 22:0.91 23:0.18 24:0.08 25:0.14 26:0.1 
0.005513414301573281 1:0.52 2:0.35 3:0.37 4:0.35 5:0.15 6:0.42 7:0.42 8:0.36 9:0.23 10:0.26 11:0.24 12:0.47 13:0.29 14:0.18 15:0.21 16:0.5 17:0.44 18:0.1 19:0.19 20:0.33 21:0.44 22:0.96 23:0.66 24:0.08 25:0.04 26:0.21 
0.7945582706341864 1:0.36 2:0.23 3:0.27 4:0.21 5:0.1 6:0.31 7:0.22 8:0.28 9:0.14 10:0.41 11:0.38 12:0.27 13:0.35 14:0.31 15:0.24 16:0.4 17:0.38 18:0.14 19:0.26 20:0.39 21:0.53 22:0.52 23:0.03 24:0.25 25:0.4 26:0.01 
0.2600698944109075 1:0.5 2:0.36 3:0.29 4:0.26 5:0.15 6:0.33 7:0.31 8:0.31 9:0.24 10:0.32 11:0.3 12:0.32 13:0.29 14:0.23 15:0.23 16:0.4 17:0.37 18:0.14 19:0.2 20:0.36 21:0.49 22:0.99 23:0.07 24:0.19 25:0.74 26:0.85 
1.332317571675449 1:0.35 2:0.28 3:0.27 4:0.22 5:0.11 6:0.29 7:0.26 8:0.27 9:0.2 10:0.41 11:0.38 12:0.3 13:0.35 14:0.37 15:0.22 16:0.33 17:0.32 18:0.17 19:0.26 20:0.4 21:0.53 22:0.91 23:0.03 24:0.03 25:0.81 26:0.02 
6.242850593823764 1:0.39 2:0.31 3:0.32 4:0.3 5:0.16 6:0.39 7:0.35 8:0.23 9:0.26 10:0.31 11:0.35 12:0.33 13:0.34 14:0.26 15:0.3 16:0.41 17:0.35 18:0.17 19:0.24 20:0.31 21:0.48 22:0.9 23:0.05 24:0.11 25:0.29 26:0.1 
4.427721013067337 1:0.39 2:0.33 3:0.33 4:0.34 5:0.13 6:0.39 7:0.42 8:0.25 9:0.26 10:0.37 11:0.33 12:0.37 13:0.35 14:0.26 15:0.28 16:0.42 17:0.38 18:0.09 19:0.21 20:0.38 21:0.5 22:0.93 23:0.23 24:0.26 25:0.07 26:0.16 
1.146075910762563 1:0.46 2:0.37 3:0.32 4:0.29 5:0.08 6:0.41 7:0.39 8:0.21 9:0.19 10:0.34 11:0.35 12:0.43 13:0.3 14:0.21 15:0.17 16:0.42 17:0.37 18:0.05 19:0.17 20:0.36 21:0.49 22:0.95 23:0.34 24:0.21 25:0.16 26:0.45 
0.1503048250181374 1:0.41 2:0.34 3:0.31 4:0.28 5:0.2 6:0.39 7:0.35 8:0.25 9:0.25 10:0.32 11:0.3 12:0.41 13:0.32 14:0.25 15:0.24 16:0.44 17:0.34 18:0.16 19:0.23 20:0.38 21:0.45 22:0.96 23:0.49 24:0.5 25:0.39 26:0.86 
0.1803776468131126 1:0.4 2:0.35 3:0.49 4:0.36 5:0.17 6:0.3 7:0.27 8:0.28 9:0.19 10:0.22 11:0.31 12:0.26 13:0.23 14:0.21 15:0.1 16:0.44 17:0.35 18:0.13 19:0.14 20:0.23 21:0.46 22:0.92 23:0.74 24:0.1 25:0.02 26:0.14 
0.6071527620715861 1:0.2 2:0.39 3:0.45 4:0.33 5:0.16 6:0.38 7:0.38 8:0.18 9:0.28 10:0.41 11:0.35 12:0.5 13:0.31 14:0.39 15:0.25 16:0.39 17:0.33 18:0.22 19:0.35 20:0.28 21:0.44 22:0.4 23:0.04 24:0.04 25:0.28 26:0.05 
8 1:0.38 2:0.29 3:0.33 4:0.27 5:0.18 6:0.36 7:0.34 8:0.23 9:0.25 10:0.32 11:0.32 12:0.34 13:0.36 14:0.26 15:0.22 16:0.41 17:0.36 18:0.15 19:0.26 20:0.33 21:0.47 22:0.98 23:0.09 24:0.31 25:0.12 26:0.33 
0.2560911130732909 1:0.38 2:0.31 3:0.36 4:0.3 5:0.18 6:0.38 7:0.37 8:0.26 9:0.24 10:0.34 11:0.33 12:0.36 13:0.37 14:0.22 15:0.21 16:0.43 17:0.38 18:0.11 19:0.22 20:0.36 21:0.49 22:0.96 23:0.63 24:0.34 25:0.41 26:0.6 
0.2478290115010912 1:0.31 2:0.3 3:0.26 4:0.27 5:0.08 6:0.33 7:0.35 8:0.21 9:0.18 10:0.27 11:0.26 12:0.34 13:0.26 14:0.15 15:0.17 16:0.3 17:0.26 18:0.05 19:0.14 20:0.27 21:0.47 22:0.95 23:0.04 24:0.51 25:0.05 26:0.67 
0.1066633899584827 1:0.31 2:0.3 3:0.26 4:0.27 5:0.07 6:0.34 7:0.35 8:0.2 9:0.18 10:0.27 11:0.26 12:0.34 13:0.26 14:0.15 15:0.15 16:0.3 17:0.26 18:0.04 19:0.14 20:0.27 21:0.46 22:0.97 23:0.69 24:0.57 25:0.05 26:0.68 
8 1:0.39 2:0.35 3:0.36 4:0.35 5:0.17 6:0.4 7:0.41 8:0.26 9:0.28 10:0.3 11:0.33 12:0.38 13:0.32 14:0.24 15:0.26 16:0.44 17:0.36 18:0.1 19:0.22 20:0.33 21:0.48 22:0.88 23:0.12 24:0.06 25:0.25 26:0.05 
0.4528106917393953 1:0.43 2:0.31 3:0.36 4:0.31 5:0.19 6:0.39 7:0.38 8:0.25 9:0.24 10:0.31 11:0.3 12:0.39 13:0.34 14:0.2 15:0.29 16:0.48 17:0.44 18:0.12 19:0.21 20:0.35 21:0.46 22:0.98 23:0.05 24:0.02 25:0.01 26:0.84 
8 1:0.41 2:0.38 3:0.38 4:0.35 5:0.16 6:0.42 7:0.41 8:0.28 9:0.22 10:0.37 11:0.38 12:0.43 13:0.36 14:0.29 15:0.26 16:0.48 17:0.46 18:0.12 19:0.23 20:0.39 21:0.46 22:0.89 23:0.02 24:0.05 25:0.02 26:0.03 
0.596665531373836 1:0.45 2:0.32 3:0.28 4:0.27 5:0.2 6:0.37 7:0.36 8:0.23 9:0.25 10:0.29 11:0.29 12:0.39 13:0.28 14:0.23 15:0.29 16:0.46 17:0.39 18:0.14 19:0.18 20:0.35 21:0.48 22:0.85 23:0.05 24:0.28 25:0.57 26:0.38 
0.3104804274069495 1:0.39 2:0.41 3:0.46 4:0.47 5:0.24 6:0.49 7:0.51 8:0.27 9:0.41 10:0.33 11:0.31 12:0.45 13:0.37 14:0.28 15:0.35 16:0.52 17:0.46 18:0.22 19:0.28 20:0.35 21:0.47 22:0.95 23:0.73 24:0.58 25:0.06 26:0.7 
-8 1:0.43 2:0.31 3:0.35 4:0.29 5:0.19 6:0.39 7:0.36 8:0.27 9:0.27 10:0.31 11:0.31 12:0.37 13:0.36 14:0.23 15:0.23 16:0.46 17:0.4 18:0.14 19:0.23 20:0.35 21:0.48 22:0.96 23:0.07 24:0.07 25:0.1 26:0.12 
-0.7776457260758115 1:0.4 2:0.26 3:0.34 4:0.28 5:0.19 6:0.33 7:0.33 8:0.26 9:0.24 10:0.34 11:0.33 12:0.32 13:0.36 14:0.25 15:0.21 16:0.42 17:0.37 18:0.13 19:0.24 20:0.36 21:0.52 22:0.93 23:0.01 24:0.01 25:0.03 26:0.28 
-8 1:0.44 2:0.39 3:0.4 4:0.36 5:0.19 6:0.43 7:0.42 8:0.31 9:0.25 10:0.38 11:0.39 12:0.42 13:0.37 14:0.29 15:0.32 16:0.52 17:0.48 18:0.14 19:0.27 20:0.41 21:0.49 22:0.92 23:0.03 24:0.04 25:0.07 26:0.02 
-1.267868493763569 1:0.43 2:0.31 3:0.35 4:0.3 5:0.2 6:0.39 7:0.36 8:0.27 9:0.27 10:0.31 11:0.31 12:0.37 13:0.36 14:0.23 15:0.23 16:0.47 17:0.4 18:0.13 19:0.23 20:0.35 21:0.49 22:0.92 23:0.08 24:0.08 25:0.1 26:0.15 
-8 1:0.39 2:0.3 3:0.35 4:0.29 5:0.18 6:0.37 7:0.36 8:0.27 9:0.26 10:0.3 11:0.3 12:0.35 13:0.35 14:0.24 15:0.21 16:0.43 17:0.36 18:0.15 19:0.24 20:0.33 21:0.47 22:0.92 23:0.05 24:0.54 25:0.08 26:0.75 
-8 1:0.35 2:0.3 3:0.37 4:0.3 5:0.18 6:0.38 7:0.36 8:0.22 9:0.28 10:0.32 11:0.33 12:0.36 13:0.37 14:0.25 15:0.21 16:0.42 17:0.37 18:0.14 19:0.24 20:0.33 21:0.46 22:0.96 23:0.28 24:0.26 25:0.12 26:0.28 
-0.4491324782748372 1:0.39 2:0.3 3:0.36 4:0.29 5:0.18 6:0.38 7:0.35 8:0.24 9:0.26 10:0.32 11:0.31 12:0.37 13:0.35 14:0.25 15:0.21 16:0.45 17:0.4 18:0.15 19:0.25 20:0.33 21:0.47 22:0.95 23:0.08 24:0.32 25:0.61 26:0.03 
-5.377821366524151 1:0.4 2:0.33 3:0.33 4:0.3 5:0.17 6:0.39 7:0.37 8:0.25 9:0.24 10:0.36 11:0.37 12:0.37 13:0.39 14:0.28 15:0.21 16:0.43 17:0.39 18:0.15 19:0.26 20:0.37 21:0.49 22:0.95 23:0.06 24:0.21 25:0.49 26:0.56 
-8 1:0.38 2:0.33 3:0.36 4:0.3 5:0.18 6:0.41 7:0.39 8:0.21 9:0.27 10:0.33 11:0.33 12:0.4 13:0.39 14:0.23 15:0.23 16:0.44 17:0.39 18:0.13 19:0.23 20:0.35 21:0.46 22:0.98 23:0.39 24:0.67 25:0.14 26:0.4 
-2.927985457376653 1:0.34 2:0.3 3:0.35 4:0.28 5:0.17 6:0.38 7:0.36 8:0.21 9:0.27 10:0.33 11:0.32 12:0.35 13:0.34 14:0.25 15:0.17 16:0.39 17:0.37 18:0.13 19:0.24 20:0.33 21:0.48 22:0.57 23:0.02 24:0.07 25:0.05 26:0.03 
-3.232234329335857 1:0.42 2:0.36 3:0.43 4:0.34 5:0.18 6:0.45 7:0.43 8:0.24 9:0.28 10:0.29 11:0.28 12:0.43 13:0.35 14:0.19 15:0.21 16:0.51 17:0.43 18:0.1 19:0.2 20:0.32 21:0.43 22:0.98 23:0.28 24:0.17 25:0.04 26:0.24 
-8 1:0.38 2:0.29 3:0.36 4:0.29 5:0.17 6:0.37 7:0.35 8:0.26 9:0.27 10:0.28 11:0.28 12:0.35 13:0.32 14:0.25 15:0.23 16:0.43 17:0.37 18:0.17 19:0.26 20:0.31 21:0.46 22:0.91 23:0.02 24:0.03 25:0.17 26:0.01 
-5.738990954823938 1:0.37 2:0.28 3:0.36 4:0.32 5:0.19 6:0.38 7:0.38 8:0.23 9:0.25 10:0.33 11:0.33 12:0.34 13:0.37 14:0.23 15:0.22 16:0.42 17:0.36 18:0.12 19:0.22 20:0.34 21:0.49 22:0.83 23:0.13 24:0.02 25:0.04 26:0.21 
-6.388823152596971 1:0.4 2:0.32 3:0.35 4:0.31 5:0.18 6:0.38 7:0.37 8:0.26 9:0.25 10:0.36 11:0.37 12:0.37 13:0.39 14:0.29 15:0.22 16:0.42 17:0.4 18:0.16 19:0.28 20:0.38 21:0.49 22:0.97 23:0.02 24:0.21 25:0.56 26:0.71 
-4.373968920159781 1:0.41 2:0.34 3:0.4 4:0.37 5:0.17 6:0.42 7:0.42 8:0.29 9:0.24 10:0.33 11:0.34 12:0.41 13:0.35 14:0.28 15:0.29 16:0.48 17:0.44 18:0.14 19:0.24 20:0.36 21:0.47 22:0.86 23:0.02 24:0.02 25:0.02 26:0.01 
-8 1:0.37 2:0.31 3:0.35 4:0.29 5:0.17 6:0.39 7:0.36 8:0.24 9:0.28 10:0.34 11:0.35 12:0.38 13:0.38 14:0.26 15:0.21 16:0.42 17:0.37 18:0.14 19:0.26 20:0.36 21:0.48 22:0.97 23:0.05 24:0.06 25:0.75 26:0.04 
-8 1:0.36 2:0.3 3:0.34 4:0.28 5:0.17 6:0.36 7:0.36 8:0.23 9:0.26 10:0.32 11:0.33 12:0.35 13:0.36 14:0.26 15:0.22 16:0.41 17:0.35 18:0.14 19:0.25 20:0.34 21:0.47 22:0.96 23:0.12 24:0.45 25:0.58 26:0.24 
-4.596004397332591 1:0.39 2:0.3 3:0.36 4:0.28 5:0.18 6:0.38 7:0.35 8:0.24 9:0.27 10:0.33 11:0.32 12:0.37 13:0.35 14:0.26 15:0.21 16:0.44 17:0.4 18:0.16 19:0.26 20:0.34 21:0.49 22:0.83 23:0.01 24:0.29 25:0.71 26:0.01 
-8 1:0.43 2:0.38 3:0.39 4:0.34 5:0.19 6:0.42 7:0.41 8:0.29 9:0.23 10:0.39 11:0.4 12:0.41 13:0.38 14:0.3 15:0.31 16:0.51 17:0.47 18:0.14 19:0.26 20:0.41 21:0.48 22:0.97 23:0.05 24:0.04 25:0.07 26:0.02 
-0.001856505798805962 1:0.39 2:0.32 3:0.33 4:0.29 5:0.17 6:0.38 7:0.37 8:0.24 9:0.24 10:0.36 11:0.38 12:0.36 13:0.39 14:0.29 15:0.21 16:0.42 17:0.39 18:0.15 19:0.27 20:0.38 21:0.5 22:0.96 23:0.03 24:0.26 25:0.64 26:0.64 
