svm_type c_svc
kernel_type rbf
gamma 8
nr_class 2
total_sv 140
rho -0.837495
label 0 1
probA -3.13469
probB -0.297664
nr_sv 116 24
SV
0.06486464043191215 1:0.52 2:0.32 3:0.33 4:0.28 5:0.29 6:0.35 7:0.3 8:0.39 9:0.31 10:0.34 11:0.33 12:0.34 13:0.44 14:0.45 15:0.42 16:0.42 17:0.4 18:0.42 19:0.34 20:0.39 21:0.48 22:0.4 23:0 24:0.33 25:0.36 26:0.02 
0.04360212101639328 1:0.4 2:0.29 3:0.28 4:0.19 5:0.13 6:0.3 7:0.21 8:0.31 9:0.21 10:0.44 11:0.4 12:0.23 13:0.39 14:0.43 15:0.29 16:0.34 17:0.31 18:0.27 19:0.33 20:0.39 21:0.52 22:0.94 23:0.01 24:0.02 25:0.56 26:0.01 
0.1852766973787029 1:0.47 2:0.33 3:0.35 4:0.3 5:0.18 6:0.38 7:0.35 8:0.33 9:0.19 10:0.29 11:0.31 12:0.38 13:0.31 14:0.26 15:0.28 16:0.5 17:0.45 18:0.12 19:0.21 20:0.36 21:0.46 22:0.96 23:0.73 24:0.12 25:0.31 26:0.66 
0.1440862931629759 1:0.3 2:0.38 3:0.32 4:0.33 5:0.19 6:0.42 7:0.44 8:0.21 9:0.28 10:0.31 11:0.33 12:0.45 13:0.32 14:0.25 15:0.21 16:0.38 17:0.31 18:0.1 19:0.2 20:0.33 21:0.48 22:0.54 23:0.12 24:0.51 25:0.12 26:0.33 
0.06233167620969562 1:0.52 2:0.33 3:0.34 4:0.31 5:0.23 6:0.37 7:0.32 8:0.4 9:0.28 10:0.33 11:0.35 12:0.36 13:0.42 14:0.43 15:0.45 16:0.44 17:0.39 18:0.43 19:0.35 20:0.38 21:0.47 22:0.3 23:0.02 24:0.23 25:0.42 26:0.08 
0.06209153332775545 1:0.41 2:0.41 3:0.39 4:0.38 5:0.23 6:0.4 7:0.42 8:0.37 9:0.34 10:0.31 11:0.33 12:0.41 13:0.33 14:0.25 15:0.27 16:0.48 17:0.37 18:0.15 19:0.22 20:0.34 21:0.44 22:0.2 23:0.21 24:0.74 25:0.06 26:0.04 
1.30417754954024 1:0.4 2:0.34 3:0.3 4:0.27 5:0.09 6:0.34 7:0.29 8:0.28 9:0.19 10:0.31 11:0.3 12:0.3 13:0.27 14:0.21 15:0.3 16:0.4 17:0.36 18:0.11 19:0.17 20:0.36 21:0.5 22:0.96 23:0.65 24:0.27 25:0.79 26:0.4 
0.06496478990406834 1:0.47 2:0.38 3:0.31 4:0.25 5:0.21 6:0.35 7:0.3 8:0.33 9:0.25 10:0.32 11:0.31 12:0.4 13:0.32 14:0.23 15:0.29 16:0.47 17:0.43 18:0.13 19:0.21 20:0.36 21:0.49 22:0.98 23:0.14 24:0.1 25:0.04 26:0.64 
0.5046069283966165 1:0.57 2:0.33 3:0.34 4:0.36 5:0.13 6:0.38 7:0.39 8:0.36 9:0.2 10:0.35 11:0.37 12:0.39 13:0.3 14:0.3 15:0.37 16:0.52 17:0.46 18:0.17 19:0.25 20:0.44 21:0.49 22:0.97 23:0.76 24:0.45 25:0.72 26:0.12 
0.6765086689374936 1:0.42 2:0.37 3:0.37 4:0.38 5:0.19 6:0.41 7:0.43 8:0.29 9:0.25 10:0.33 11:0.34 12:0.42 13:0.33 14:0.3 15:0.28 16:0.45 17:0.41 18:0.19 19:0.28 20:0.37 21:0.46 22:0.86 23:0.52 24:0.09 25:0.14 26:0.48 
0.04748599954919894 1:0.29 2:0.39 3:0.32 4:0.32 5:0.19 6:0.39 7:0.43 8:0.22 9:0.28 10:0.32 11:0.32 12:0.44 13:0.32 14:0.26 15:0.21 16:0.35 17:0.31 18:0.12 19:0.2 20:0.33 21:0.48 22:0.2 23:0.05 24:0.61 25:0.07 26:0.3 
0.7163068565680115 1:0.46 2:0.41 3:0.36 4:0.4 5:0.23 6:0.43 7:0.43 8:0.33 9:0.21 10:0.34 11:0.36 12:0.41 13:0.36 14:0.33 15:0.37 16:0.46 17:0.41 18:0.23 19:0.3 20:0.38 21:0.47 22:0.95 23:0.06 24:0.03 25:0.06 26:0.03 
1.00190419968711 1:0.56 2:0.33 3:0.34 4:0.36 5:0.12 6:0.37 7:0.37 8:0.37 9:0.21 10:0.35 11:0.36 12:0.39 13:0.3 14:0.31 15:0.35 16:0.53 17:0.47 18:0.15 19:0.25 20:0.44 21:0.51 22:0.95 23:0.74 24:0.29 25:0.33 26:0.1 
0.281880392381717 1:0.33 2:0.4 3:0.43 4:0.44 5:0.16 6:0.51 7:0.51 8:0.32 9:0.32 10:0.28 11:0.26 12:0.5 13:0.31 14:0.27 15:0.29 16:0.43 17:0.37 18:0.2 19:0.32 20:0.28 21:0.4 22:0.92 23:0.32 24:0.23 25:0.12 26:0.16 
0.09280052956144753 1:0.54 2:0.31 3:0.3 4:0.25 5:0.24 6:0.29 7:0.26 8:0.37 9:0.24 10:0.35 11:0.32 12:0.3 13:0.41 14:0.31 15:0.2 16:0.45 17:0.41 18:0.19 19:0.26 20:0.4 21:0.53 22:0.33 23:0.14 24:0.15 25:0.96 26:0.07 
0.02785079996736104 1:0.34 2:0.36 3:0.32 4:0.31 5:0.2 6:0.44 7:0.4 8:0.21 9:0.3 10:0.32 11:0.33 12:0.35 13:0.31 14:0.29 15:0.28 16:0.42 17:0.35 18:0.15 19:0.26 20:0.33 21:0.45 22:0.97 23:0.15 24:0.15 25:0.07 26:0.15 
1.276901947159078 1:0.53 2:0.36 3:0.33 4:0.31 5:0.15 6:0.41 7:0.38 8:0.28 9:0.2 10:0.29 11:0.34 12:0.41 13:0.32 14:0.24 15:0.3 16:0.5 17:0.45 18:0.09 19:0.2 20:0.35 21:0.47 22:0.97 23:0.79 24:0.06 25:0.1 26:0.75 
0.04674761002318119 1:0.45 2:0.26 3:0.29 4:0.22 5:0.21 6:0.3 7:0.25 8:0.29 9:0.21 10:0.39 11:0.43 12:0.28 13:0.4 14:0.34 15:0.22 16:0.44 17:0.42 18:0.2 19:0.28 20:0.42 21:0.55 22:0.94 23:0.51 24:0.43 25:0.98 26:0.39 
0.05535945364067761 1:0.5 2:0.34 3:0.35 4:0.36 5:0.16 6:0.37 7:0.37 8:0.35 9:0.21 10:0.29 11:0.3 12:0.39 13:0.33 14:0.24 15:0.28 16:0.48 17:0.46 18:0.11 19:0.19 20:0.36 21:0.51 22:0.03 23:0 24:0.98 25:0.03 26:0.04 
0.1666246021502307 1:0.38 2:0.34 3:0.29 4:0.26 5:0.18 6:0.33 7:0.32 8:0.26 9:0.27 10:0.3 11:0.29 12:0.31 13:0.28 14:0.24 15:0.25 16:0.36 17:0.33 18:0.14 19:0.21 20:0.3 21:0.49 22:0.93 23:0.02 24:0.03 25:0.84 26:0.8 
0.1585868613278975 1:0.46 2:0.46 3:0.33 4:0.36 5:0.24 6:0.41 7:0.41 8:0.28 9:0.41 10:0.33 11:0.34 12:0.36 13:0.43 14:0.3 15:0.31 16:0.4 17:0.4 18:0.22 19:0.28 20:0.36 21:0.44 22:0.84 23:0.22 24:0.19 25:0.03 26:0.32 
0.03460113136214805 1:0.38 2:0.23 3:0.25 4:0.17 5:0.29 6:0.25 7:0.2 8:0.27 9:0.23 10:0.39 11:0.39 12:0.23 13:0.38 14:0.38 15:0.21 16:0.42 17:0.37 18:0.2 19:0.24 20:0.38 21:0.53 22:0.98 23:0.05 24:0.05 25:0.99 26:0.07 
0.1087008407296849 1:0.37 2:0.21 3:0.22 4:0.22 5:0.1 6:0.25 7:0.26 8:0.21 9:0.19 10:0.22 11:0.22 12:0.25 13:0.22 14:0.16 15:0.16 16:0.29 17:0.26 18:0.08 19:0.14 20:0.24 21:0.47 22:0.96 23:0.03 24:0.03 25:0.66 26:0.06 
0.1436791382104112 1:0.3 2:0.14 3:0.21 4:0.15 5:0.18 6:0.17 7:0.18 8:0.12 9:0.16 10:0.44 11:0.47 12:0.17 13:0.4 14:0.46 15:0.23 16:0.29 17:0.29 18:0.16 19:0.33 20:0.4 21:0.64 22:0.99 23:0.07 24:0.73 25:0.33 26:0 
1.69759259599199 1:0.36 2:0.39 3:0.36 4:0.35 5:0.14 6:0.44 7:0.43 8:0.21 9:0.31 10:0.28 11:0.3 12:0.43 13:0.33 14:0.27 15:0.27 16:0.4 17:0.36 18:0.17 19:0.28 20:0.29 21:0.41 22:0.93 23:0.31 24:0.24 25:0.09 26:0.47 
0.06031632936318854 1:0.46 2:0.34 3:0.31 4:0.2 5:0.21 6:0.34 7:0.21 8:0.24 9:0.29 10:0.47 11:0.51 12:0.27 13:0.42 14:0.43 15:0.4 16:0.48 17:0.43 18:0.19 19:0.24 20:0.45 21:0.54 22:0.99 23:0.01 24:0.04 25:0.87 26:0.03 
0.3385079151421776 1:0.42 2:0.42 3:0.37 4:0.36 5:0.23 6:0.42 7:0.38 8:0.3 9:0.23 10:0.36 11:0.38 12:0.39 13:0.3 14:0.34 15:0.36 16:0.48 17:0.43 18:0.22 19:0.25 20:0.39 21:0.48 22:0.91 23:0.03 24:0.04 25:0.03 26:0.02 
2.808204605518 1:0.47 2:0.39 3:0.38 4:0.33 5:0.16 6:0.42 7:0.37 8:0.27 9:0.26 10:0.33 11:0.37 12:0.43 13:0.33 14:0.28 15:0.32 16:0.48 17:0.45 18:0.1 19:0.24 20:0.34 21:0.46 22:0.92 23:0.69 24:0.1 25:0.05 26:0.68 
0.05061514031748073 1:0.39 2:0.35 3:0.29 4:0.23 5:0.23 6:0.32 7:0.26 8:0.26 9:0.34 10:0.35 11:0.37 12:0.33 13:0.38 14:0.41 15:0.32 16:0.38 17:0.37 18:0.35 19:0.35 20:0.36 21:0.47 22:0.98 23:0.08 24:0.09 25:0.76 26:0.63 
0.1490094950780944 1:0.48 2:0.32 3:0.24 4:0.25 5:0.33 6:0.27 7:0.27 8:0.32 9:0.29 10:0.36 11:0.37 12:0.26 13:0.32 14:0.32 15:0.28 16:0.47 17:0.37 18:0.17 19:0.25 20:0.39 21:0.53 22:0.14 23:0.02 24:0.2 25:0.93 26:0.53 
7.839309846013587 1:0.54 2:0.27 3:0.28 4:0.29 5:0.15 6:0.28 7:0.34 8:0.37 9:0.24 10:0.3 11:0.27 12:0.31 13:0.31 14:0.25 15:0.34 16:0.47 17:0.52 18:0.13 19:0.19 20:0.41 21:0.53 22:1 23:0.72 24:0.04 25:0.12 26:0.16 
0.1084180477781388 1:0.39 2:0.27 3:0.43 4:0.34 5:0.17 6:0.31 7:0.39 8:0.23 9:0.34 10:0.29 11:0.31 12:0.38 13:0.23 14:0.17 15:0.16 16:0.31 17:0.27 18:0.15 19:0.26 20:0.29 21:0.46 22:0.81 23:0.15 24:0.47 25:0.26 26:0.68 
0.02461108945926027 1:0.24 2:0.19 3:0.18 4:0.19 5:0.1 6:0.24 7:0.24 8:0.15 9:0.16 10:0.29 11:0.25 12:0.2 13:0.28 14:0.16 15:0.11 16:0.27 17:0.22 18:0.07 19:0.17 20:0.28 21:0.52 22:0.76 23:0.13 24:0.23 25:0.03 26:0.03 
0.03064741406128033 1:0.42 2:0.29 3:0.33 4:0.27 5:0.2 6:0.33 7:0.29 8:0.37 9:0.28 10:0.37 11:0.37 12:0.28 13:0.35 14:0.41 15:0.28 16:0.41 17:0.4 18:0.31 19:0.37 20:0.38 21:0.51 22:0.07 23:0.14 24:0.08 25:0.9 26:0.06 
0.04626684478438564 1:0.38 2:0.24 3:0.21 4:0.18 5:0.12 6:0.24 7:0.22 8:0.24 9:0.24 10:0.39 11:0.41 12:0.25 13:0.34 14:0.32 15:0.2 16:0.34 17:0.31 18:0.18 19:0.23 20:0.4 21:0.54 22:0.9 23:0.07 24:0.05 25:0.97 26:0.04 
0.1470992233858532 1:0.39 2:0.26 3:0.33 4:0.24 5:0.13 6:0.32 7:0.27 8:0.29 9:0.16 10:0.39 11:0.36 12:0.31 13:0.34 14:0.29 15:0.27 16:0.43 17:0.44 18:0.16 19:0.26 20:0.37 21:0.56 22:0.02 23:0.19 24:0.75 25:0.7 26:0.22 
2.694723611602161 1:0.35 2:0.28 3:0.3 4:0.3 5:0.15 6:0.32 7:0.32 8:0.27 9:0.24 10:0.34 11:0.28 12:0.31 13:0.27 14:0.27 15:0.33 16:0.4 17:0.34 18:0.18 19:0.23 20:0.35 21:0.48 22:0.93 23:0.55 24:0.06 25:0.15 26:0.02 
0.06745210798381591 1:0.38 2:0.38 3:0.43 4:0.4 5:0.1 6:0.38 7:0.36 8:0.37 9:0.22 10:0.35 11:0.32 12:0.36 13:0.28 14:0.35 15:0.29 16:0.46 17:0.46 18:0.21 19:0.35 20:0.37 21:0.46 22:0.94 23:0.35 24:0.06 25:0.55 26:0.06 
0.2116105624493909 1:0.29 2:0.22 3:0.22 4:0.23 5:0.08 6:0.28 7:0.28 8:0.18 9:0.14 10:0.27 11:0.25 12:0.27 13:0.23 14:0.15 15:0.12 16:0.29 17:0.25 18:0.06 19:0.13 20:0.28 21:0.49 22:0.35 23:0.06 24:0.06 25:0.62 26:0.69 
0.8836307762435942 1:0.5 2:0.32 3:0.32 4:0.27 5:0.21 6:0.37 7:0.36 8:0.3 9:0.23 10:0.29 11:0.28 12:0.38 13:0.33 14:0.19 15:0.27 16:0.48 17:0.39 18:0.11 19:0.2 20:0.35 21:0.49 22:0.97 23:0.67 24:0.26 25:0.27 26:0.58 
1.099073592671162 1:0.39 2:0.32 3:0.3 4:0.33 5:0.13 6:0.37 7:0.39 8:0.28 9:0.28 10:0.36 11:0.32 12:0.33 13:0.38 14:0.24 15:0.28 16:0.39 17:0.36 18:0.1 19:0.23 20:0.38 21:0.51 22:0.9 23:0.19 24:0.36 25:0.02 26:0.1 
0.09709058413553091 1:0.41 2:0.25 3:0.21 4:0.22 5:0.07 6:0.28 7:0.27 8:0.24 9:0.19 10:0.31 11:0.3 12:0.26 13:0.26 14:0.19 15:0.18 16:0.31 17:0.3 18:0.13 19:0.13 20:0.34 21:0.52 22:0.98 23:0.05 24:0.6 25:0.69 26:0.08 
0.1034010946449277 1:0.35 2:0.3 3:0.27 4:0.23 5:0.19 6:0.28 7:0.28 8:0.25 9:0.2 10:0.26 11:0.24 12:0.34 13:0.26 14:0.2 15:0.26 16:0.39 17:0.34 18:0.11 19:0.17 20:0.29 21:0.48 22:0.95 23:0.77 24:0.52 25:0.74 26:0.76 
0.2875391507599306 1:0.45 2:0.38 3:0.34 4:0.31 5:0.22 6:0.38 7:0.36 8:0.29 9:0.23 10:0.35 11:0.37 12:0.38 13:0.35 14:0.33 15:0.3 16:0.5 17:0.45 18:0.18 19:0.27 20:0.39 21:0.5 22:0.87 23:0.39 24:0.09 25:0.63 26:0.16 
0.8029680865684988 1:0.41 2:0.26 3:0.33 4:0.27 5:0.18 6:0.37 7:0.33 8:0.24 9:0.21 10:0.37 11:0.34 12:0.35 13:0.34 14:0.27 15:0.26 16:0.43 17:0.41 18:0.15 19:0.24 20:0.39 21:0.51 22:0.98 23:0.5 24:0.3 25:0.8 26:0.58 
0.1994417080584563 1:0.43 2:0.41 3:0.37 4:0.36 5:0.26 6:0.42 7:0.42 8:0.29 9:0.33 10:0.33 11:0.33 12:0.39 13:0.38 14:0.3 15:0.38 16:0.47 17:0.44 18:0.29 19:0.3 20:0.37 21:0.46 22:0.98 23:0.39 24:0.67 25:0.14 26:0.4 
0.1182497883377269 1:0.5 2:0.47 3:0.36 4:0.39 5:0.16 6:0.5 7:0.49 8:0.28 9:0.34 10:0.39 11:0.4 12:0.42 13:0.37 14:0.3 15:0.25 16:0.43 17:0.4 18:0.2 19:0.25 20:0.4 21:0.49 22:0.97 23:0.14 24:0.08 25:0.75 26:0.58 
3.098900262022513 1:0.47 2:0.37 3:0.36 4:0.37 5:0.23 6:0.38 7:0.4 8:0.33 9:0.32 10:0.38 11:0.38 12:0.43 13:0.4 14:0.31 15:0.34 16:0.48 17:0.43 18:0.21 19:0.27 20:0.41 21:0.51 22:0.9 23:0.36 24:0.25 25:0.14 26:0.12 
0.07063696627329122 1:0.44 2:0.44 3:0.27 4:0.3 5:0.22 6:0.37 7:0.31 8:0.26 9:0.35 10:0.33 11:0.36 12:0.32 13:0.34 14:0.32 15:0.37 16:0.36 17:0.34 18:0.35 19:0.32 20:0.36 21:0.48 22:0.57 23:0.02 24:0.07 25:0.05 26:0.03 
0.1879784200529227 1:0.29 2:0.35 3:0.35 4:0.31 5:0.31 6:0.27 7:0.33 8:0.21 9:0.34 10:0.35 11:0.38 12:0.38 13:0.42 14:0.32 15:0.14 16:0.38 17:0.27 18:0.14 19:0.24 20:0.36 21:0.46 22:0.93 23:0.36 24:0.32 25:0.69 26:0.14 
0.8358547647672622 1:0.39 2:0.36 3:0.33 4:0.33 5:0.13 6:0.41 7:0.42 8:0.25 9:0.24 10:0.29 11:0.29 12:0.42 13:0.32 14:0.19 15:0.22 16:0.4 17:0.35 18:0.09 19:0.18 20:0.3 21:0.44 22:0.98 23:0.28 24:0.13 25:0.09 26:0.78 
0.834186371832655 1:0.43 2:0.4 3:0.38 4:0.37 5:0.21 6:0.41 7:0.42 8:0.31 9:0.28 10:0.32 11:0.34 12:0.43 13:0.33 14:0.31 15:0.31 16:0.46 17:0.4 18:0.18 19:0.28 20:0.37 21:0.46 22:0.84 23:0.64 24:0.07 25:0.07 26:0.59 
2.541439985529615 1:0.36 2:0.33 3:0.32 4:0.32 5:0.11 6:0.37 7:0.38 8:0.26 9:0.21 10:0.3 11:0.3 12:0.37 13:0.32 14:0.23 15:0.26 16:0.38 17:0.35 18:0.12 19:0.21 20:0.32 21:0.46 22:0.93 23:0.79 24:0.37 25:0.19 26:0.66 
0.2529112049309734 1:0.29 2:0.3 3:0.36 4:0.3 5:0.3 6:0.34 7:0.35 8:0.18 9:0.4 10:0.34 11:0.34 12:0.35 13:0.41 14:0.3 15:0.2 16:0.38 17:0.33 18:0.16 19:0.29 20:0.31 21:0.47 22:0.6 23:0.43 24:0.41 25:0.41 26:0.44 
0.5578474245289952 1:0.44 2:0.35 3:0.37 4:0.29 5:0.18 6:0.4 7:0.34 8:0.25 9:0.25 10:0.34 11:0.37 12:0.38 13:0.39 14:0.27 15:0.37 16:0.49 17:0.45 18:0.11 19:0.21 20:0.37 21:0.48 22:0.97 23:0.41 24:0.69 25:0.12 26:0.32 
0.3680451720159588 1:0.49 2:0.34 3:0.27 4:0.34 5:0.14 6:0.35 7:0.35 8:0.3 9:0.25 10:0.31 11:0.31 12:0.34 13:0.25 14:0.21 15:0.25 16:0.38 17:0.39 18:0.13 19:0.16 20:0.36 21:0.49 22:0.91 23:0.02 24:0.59 25:0.01 26:0.61 
0.1569637463589126 1:0.26 2:0.48 3:0.33 4:0.2 5:0.13 6:0.37 7:0.27 8:0.14 9:0.21 10:0.25 11:0.23 12:0.51 13:0.24 14:0.21 15:0.25 16:0.34 17:0.31 18:0.06 19:0.18 20:0.24 21:0.41 22:0.52 23:0.04 24:0.3 25:0.01 26:0.11 
0.5710834548457417 1:0.42 2:0.43 3:0.34 4:0.34 5:0.24 6:0.4 7:0.43 8:0.29 9:0.32 10:0.3 11:0.3 12:0.4 13:0.31 14:0.23 15:0.38 16:0.47 17:0.44 18:0.16 19:0.21 20:0.33 21:0.43 22:0.97 23:0.08 24:0.3 25:0.02 26:0.05 
0.3886515225107626 1:0.48 2:0.38 3:0.43 4:0.39 5:0.18 6:0.47 7:0.44 8:0.32 9:0.25 10:0.28 11:0.27 12:0.39 13:0.28 14:0.22 15:0.38 16:0.57 17:0.53 18:0.12 19:0.22 20:0.33 21:0.43 22:0.98 23:0.28 24:0.17 25:0.04 26:0.24 
0.06547923305838566 1:0.44 2:0.42 3:0.32 4:0.31 5:0.2 6:0.4 7:0.37 8:0.27 9:0.28 10:0.28 11:0.31 12:0.38 13:0.26 14:0.27 15:0.37 16:0.48 17:0.39 18:0.15 19:0.24 20:0.3 21:0.46 22:0.94 23:0.02 24:0.68 25:0 26:0.01 
0.5318275730343747 1:0.31 2:0.31 3:0.27 4:0.28 5:0.08 6:0.33 7:0.35 8:0.22 9:0.19 10:0.27 11:0.27 12:0.34 13:0.26 14:0.16 15:0.18 16:0.31 17:0.27 18:0.06 19:0.14 20:0.27 21:0.48 22:0.94 23:0.61 24:0.06 25:0.07 26:0.7 
0.07443656615368437 1:0.35 2:0.22 3:0.25 4:0.21 5:0.16 6:0.23 7:0.24 8:0.22 9:0.2 10:0.26 11:0.23 12:0.25 13:0.25 14:0.16 15:0.17 16:0.32 17:0.28 18:0.06 19:0.15 20:0.27 21:0.48 22:0.93 23:0.07 24:0.48 25:0.81 26:0.7 
0.1344814768932093 1:0.49 2:0.38 3:0.34 4:0.37 5:0.21 6:0.38 7:0.38 8:0.32 9:0.3 10:0.36 11:0.38 12:0.39 13:0.36 14:0.34 15:0.37 16:0.49 17:0.42 18:0.2 19:0.25 20:0.4 21:0.49 22:0.06 23:0.03 24:0.03 25:0.02 26:0.02 
1.056080021172284 1:0.42 2:0.35 3:0.4 4:0.3 5:0.18 6:0.41 7:0.36 8:0.33 9:0.25 10:0.3 11:0.31 12:0.37 13:0.31 14:0.28 15:0.33 16:0.5 17:0.45 18:0.14 19:0.24 20:0.33 21:0.49 22:0.83 23:0.13 24:0.02 25:0.04 26:0.21 
0.4557009658228678 1:0.41 2:0.31 3:0.29 4:0.27 5:0.15 6:0.37 7:0.34 8:0.27 9:0.19 10:0.28 11:0.27 12:0.34 13:0.32 14:0.21 15:0.3 16:0.45 17:0.41 18:0.07 19:0.17 20:0.32 21:0.49 22:0.88 23:0.24 24:0.14 25:0.09 26:0.14 
0.05919984462701924 1:0.38 2:0.34 3:0.35 4:0.35 5:0.19 6:0.4 7:0.38 8:0.26 9:0.31 10:0.32 11:0.34 12:0.34 13:0.3 14:0.31 15:0.3 16:0.42 17:0.4 18:0.2 19:0.28 20:0.33 21:0.43 22:0.17 23:0.24 24:0.76 25:0.07 26:0.2 
0.3320407272352326 1:0.35 2:0.35 3:0.34 4:0.29 5:0.24 6:0.32 7:0.32 8:0.23 9:0.33 10:0.32 11:0.33 12:0.38 13:0.33 14:0.27 15:0.29 16:0.39 17:0.36 18:0.15 19:0.26 20:0.35 21:0.46 22:0.94 23:0.13 24:0.17 25:0.06 26:0.13 
0.1553173337792187 1:0.31 2:0.26 3:0.31 4:0.26 5:0.11 6:0.32 7:0.3 8:0.27 9:0.2 10:0.35 11:0.3 12:0.31 13:0.29 14:0.29 15:0.2 16:0.41 17:0.37 18:0.18 19:0.28 20:0.32 21:0.49 22:0.05 23:0.72 24:0.98 25:0.57 26:0.11 
0.7477856640916352 1:0.41 2:0.35 3:0.32 4:0.32 5:0.21 6:0.41 7:0.44 8:0.24 9:0.33 10:0.33 11:0.29 12:0.45 13:0.33 14:0.25 15:0.27 16:0.42 17:0.37 18:0.15 19:0.22 20:0.35 21:0.47 22:0.96 23:0.17 24:0.26 25:0.13 26:0.62 
0.2515587281981555 1:0.59 2:0.3 3:0.29 4:0.23 5:0.23 6:0.35 7:0.3 8:0.38 9:0.18 10:0.35 11:0.37 12:0.34 13:0.41 14:0.24 15:0.33 16:0.52 17:0.45 18:0.11 19:0.2 20:0.42 21:0.53 22:0.98 23:0.79 24:0.77 25:0.44 26:0.18 
0.0390798740288041 1:0.4 2:0.31 3:0.18 4:0.25 5:0.08 6:0.28 7:0.28 8:0.27 9:0.25 10:0.28 11:0.28 12:0.29 13:0.22 14:0.19 15:0.2 16:0.27 17:0.3 18:0.11 19:0.16 20:0.34 21:0.5 22:0.93 23:0.01 24:0.61 25:0.59 26:0.49 
0.08453887876771697 1:0.55 2:0.31 3:0.35 4:0.37 5:0.18 6:0.36 7:0.39 8:0.35 9:0.23 10:0.29 11:0.3 12:0.34 13:0.31 14:0.23 15:0.32 16:0.49 17:0.45 18:0.1 19:0.21 20:0.35 21:0.48 22:0.04 23:0 24:0.97 25:0.02 26:0.01 
0.05051459726981444 1:0.4 2:0.29 3:0.24 4:0.17 5:0.22 6:0.29 7:0.21 8:0.25 9:0.24 10:0.46 11:0.5 12:0.26 13:0.46 14:0.49 15:0.32 16:0.42 17:0.37 18:0.26 19:0.35 20:0.43 21:0.56 22:0.95 23:0.04 24:0.15 25:0.98 26:0.02 
0.2322760356787479 1:0.38 2:0.32 3:0.35 4:0.3 5:0.15 6:0.38 7:0.35 8:0.26 9:0.27 10:0.28 11:0.31 12:0.36 13:0.33 14:0.26 15:0.25 16:0.43 17:0.38 18:0.13 19:0.25 20:0.32 21:0.44 22:0.97 23:0.47 24:0.29 25:0.74 26:0.37 
0.05011013497715623 1:0.42 2:0.3 3:0.33 4:0.25 5:0.32 6:0.31 7:0.26 8:0.35 9:0.31 10:0.42 11:0.41 12:0.22 13:0.44 14:0.45 15:0.31 16:0.43 17:0.41 18:0.32 19:0.39 20:0.4 21:0.54 22:0.29 23:0.07 24:0.07 25:0.95 26:0.03 
0.06171404170101397 1:0.35 2:0.23 3:0.28 4:0.21 5:0.1 6:0.28 7:0.22 8:0.28 9:0.14 10:0.39 11:0.37 12:0.26 13:0.34 14:0.31 15:0.25 16:0.41 17:0.39 18:0.16 19:0.25 20:0.37 21:0.54 22:0.13 23:0.02 24:0.17 25:0.34 26:0.01 
0.01531514528117819 1:0.45 2:0.39 3:0.3 4:0.36 5:0.14 6:0.37 7:0.4 8:0.28 9:0.26 10:0.35 11:0.39 12:0.33 13:0.36 14:0.27 15:0.31 16:0.39 17:0.38 18:0.16 19:0.24 20:0.38 21:0.49 22:0.97 23:0.11 24:0.09 25:0.05 26:0.05 
0.07603359471134029 1:0.34 2:0.38 3:0.39 4:0.38 5:0.08 6:0.34 7:0.32 8:0.39 9:0.21 10:0.33 11:0.32 12:0.29 13:0.26 14:0.4 15:0.23 16:0.44 17:0.44 18:0.3 19:0.4 20:0.35 21:0.46 22:0.97 23:0.41 24:0.09 25:0.77 26:0.05 
0.006212924622935614 1:0.35 2:0.23 3:0.27 4:0.2 5:0.11 6:0.3 7:0.22 8:0.28 9:0.14 10:0.4 11:0.38 12:0.26 13:0.35 14:0.3 15:0.25 16:0.41 17:0.38 18:0.16 19:0.26 20:0.38 21:0.53 22:0.22 23:0.03 24:0.47 25:0.32 26:0.01 
1.574322999589799 1:0.52 2:0.35 3:0.37 4:0.35 5:0.15 6:0.42 7:0.42 8:0.36 9:0.23 10:0.26 11:0.24 12:0.47 13:0.29 14:0.18 15:0.21 16:0.5 17:0.44 18:0.1 19:0.19 20:0.33 21:0.44 22:0.96 23:0.66 24:0.08 25:0.04 26:0.21 
0.1308823909235376 1:0.51 2:0.29 3:0.31 4:0.24 5:0.21 6:0.33 7:0.31 8:0.37 9:0.27 10:0.38 11:0.4 12:0.35 13:0.38 14:0.33 15:0.28 16:0.52 17:0.44 18:0.19 19:0.29 20:0.41 21:0.51 22:0.96 23:0.53 24:0.22 25:0.94 26:0.18 
0.0966453462342118 1:0.36 2:0.23 3:0.27 4:0.21 5:0.1 6:0.31 7:0.22 8:0.28 9:0.14 10:0.41 11:0.38 12:0.27 13:0.35 14:0.31 15:0.24 16:0.4 17:0.38 18:0.14 19:0.26 20:0.39 21:0.53 22:0.52 23:0.03 24:0.25 25:0.4 26:0.01 
0.16144448141946 1:0.5 2:0.36 3:0.29 4:0.26 5:0.15 6:0.33 7:0.31 8:0.31 9:0.24 10:0.32 11:0.3 12:0.32 13:0.29 14:0.23 15:0.23 16:0.4 17:0.37 18:0.14 19:0.2 20:0.36 21:0.49 22:0.99 23:0.07 24:0.19 25:0.74 26:0.85 
0.01138185221867365 1:0.36 2:0.28 3:0.24 4:0.22 5:0.17 6:0.25 7:0.24 8:0.23 9:0.22 10:0.24 11:0.29 12:0.28 13:0.24 14:0.18 15:0.16 16:0.3 17:0.27 18:0.16 19:0.17 20:0.28 21:0.48 22:0.93 23:0.08 24:0.27 25:0.57 26:0.65 
0.05828205684683622 1:0.38 2:0.33 3:0.28 4:0.23 5:0.19 6:0.29 7:0.25 8:0.25 9:0.32 10:0.35 11:0.38 12:0.31 13:0.36 14:0.38 15:0.3 16:0.38 17:0.36 18:0.32 19:0.34 20:0.36 21:0.49 22:0.97 23:0.08 24:0.1 25:0.92 26:0.69 
0.07445872856238496 1:0.36 2:0.22 3:0.27 4:0.21 5:0.13 6:0.29 7:0.22 8:0.27 9:0.14 10:0.41 11:0.37 12:0.27 13:0.35 14:0.31 15:0.25 16:0.42 17:0.39 18:0.16 19:0.25 20:0.38 21:0.53 22:0.14 23:0.02 24:0.42 25:0.2 26:0.01 
1.921450640417767 1:0.46 2:0.33 3:0.38 4:0.27 5:0.29 6:0.36 7:0.29 8:0.28 9:0.3 10:0.29 11:0.25 12:0.33 13:0.37 14:0.26 15:0.32 16:0.47 17:0.41 18:0.14 19:0.27 20:0.36 21:0.48 22:0.85 23:0.41 24:0.25 25:0.16 26:0.73 
0.003020776305311033 1:0.4 2:0.33 3:0.29 4:0.19 5:0.23 6:0.33 7:0.22 8:0.28 9:0.27 10:0.42 11:0.46 12:0.29 13:0.39 14:0.45 15:0.36 16:0.46 17:0.38 18:0.21 19:0.33 20:0.39 21:0.52 22:0.97 23:0.02 24:0.37 25:0.98 26:0.01 
1.234720812375619 1:0.37 2:0.27 3:0.32 4:0.26 5:0.16 6:0.34 7:0.31 8:0.21 9:0.23 10:0.23 11:0.24 12:0.36 13:0.23 14:0.25 15:0.27 16:0.4 17:0.36 18:0.12 19:0.21 20:0.26 21:0.48 22:0.95 23:0.76 24:0.35 25:0.08 26:0.06 
0.3074697473085884 1:0.47 2:0.37 3:0.44 4:0.38 5:0.11 6:0.42 7:0.37 8:0.33 9:0.21 10:0.39 11:0.38 12:0.39 13:0.36 14:0.27 15:0.28 16:0.5 17:0.5 18:0.09 19:0.2 20:0.4 21:0.5 22:0.95 23:0.64 24:0.63 25:0.32 26:0.34 
0.1402162340670765 1:0.44 2:0.34 3:0.28 4:0.18 5:0.24 6:0.31 7:0.21 8:0.29 9:0.27 10:0.42 11:0.46 12:0.28 13:0.41 14:0.46 15:0.37 16:0.47 17:0.39 18:0.23 19:0.33 20:0.39 21:0.52 22:0.98 23:0.05 24:0.7 25:0.96 26:0.04 
0.01291026943832886 1:0.41 2:0.41 3:0.38 4:0.36 5:0.2 6:0.38 7:0.42 8:0.34 9:0.33 10:0.29 11:0.31 12:0.4 13:0.3 14:0.24 15:0.28 16:0.45 17:0.34 18:0.12 19:0.2 20:0.34 21:0.44 22:0.19 23:0.16 24:0.61 25:0.04 26:0.07 
4.635051787449251 1:0.39 2:0.33 3:0.33 4:0.34 5:0.13 6:0.39 7:0.42 8:0.25 9:0.26 10:0.37 11:0.33 12:0.37 13:0.35 14:0.26 15:0.28 16:0.42 17:0.38 18:0.09 19:0.21 20:0.38 21:0.5 22:0.93 23:0.23 24:0.26 25:0.07 26:0.16 
0.0268574274740402 1:0.5 2:0.39 3:0.32 4:0.3 5:0.15 6:0.43 7:0.42 8:0.35 9:0.24 10:0.33 11:0.33 12:0.41 13:0.3 14:0.25 15:0.37 16:0.5 17:0.45 18:0.11 19:0.17 20:0.36 21:0.48 22:0.95 23:0.05 24:0.7 25:0.05 26:0.04 
1.442046541905927 1:0.45 2:0.35 3:0.32 4:0.31 5:0.15 6:0.41 7:0.34 8:0.28 9:0.23 10:0.38 11:0.38 12:0.35 13:0.33 14:0.33 15:0.3 16:0.42 17:0.4 18:0.19 19:0.24 20:0.4 21:0.47 22:0.96 23:0.84 24:0.52 25:0.14 26:0.06 
0.2942839129467605 1:0.52 2:0.34 3:0.36 4:0.27 5:0.18 6:0.35 7:0.36 8:0.28 9:0.21 10:0.31 11:0.27 12:0.4 13:0.31 14:0.21 15:0.4 16:0.5 17:0.47 18:0.11 19:0.2 20:0.38 21:0.47 22:0.96 23:0.28 24:0.16 25:0.06 26:0.5 
0.4586211803427806 1:0.43 2:0.33 3:0.36 4:0.32 5:0.14 6:0.4 7:0.38 8:0.25 9:0.21 10:0.33 11:0.32 12:0.38 13:0.33 14:0.24 15:0.36 16:0.45 17:0.43 18:0.13 19:0.19 20:0.38 21:0.46 22:0.98 23:0.2 24:0.2 25:0.34 26:0.73 
0.7757237201044871 1:0.49 2:0.33 3:0.36 4:0.32 5:0.25 6:0.34 7:0.33 8:0.37 9:0.28 10:0.35 11:0.34 12:0.36 13:0.36 14:0.27 15:0.21 16:0.5 17:0.44 18:0.16 19:0.25 20:0.4 21:0.49 22:0.63 23:0.81 24:0.5 25:0.68 26:0.49 
1.315179050438255 1:0.46 2:0.37 3:0.32 4:0.29 5:0.08 6:0.41 7:0.39 8:0.21 9:0.19 10:0.34 11:0.35 12:0.43 13:0.3 14:0.21 15:0.17 16:0.42 17:0.37 18:0.05 19:0.17 20:0.36 21:0.49 22:0.95 23:0.34 24:0.21 25:0.16 26:0.45 
0.5361103920846785 1:0.46 2:0.33 3:0.38 4:0.27 5:0.27 6:0.37 7:0.29 8:0.28 9:0.3 10:0.3 11:0.26 12:0.32 13:0.37 14:0.27 15:0.34 16:0.47 17:0.44 18:0.15 19:0.28 20:0.35 21:0.47 22:0.93 23:0.34 24:0.25 25:0.26 26:0.61 
0.03449102372241515 1:0.43 2:0.34 3:0.31 4:0.25 5:0.16 6:0.37 7:0.3 8:0.28 9:0.2 10:0.37 11:0.4 12:0.34 13:0.36 14:0.35 15:0.36 16:0.45 17:0.43 18:0.19 19:0.21 20:0.42 21:0.52 22:0.97 23:0.08 24:0.94 25:0.15 26:0.11 
0.02075763858760055 1:0.41 2:0.34 3:0.31 4:0.28 5:0.2 6:0.39 7:0.35 8:0.25 9:0.25 10:0.32 11:0.3 12:0.41 13:0.32 14:0.25 15:0.24 16:0.44 17:0.34 18:0.16 19:0.23 20:0.38 21:0.45 22:0.96 23:0.49 24:0.5 25:0.39 26:0.86 
0.1196052103043766 1:0.2 2:0.39 3:0.45 4:0.33 5:0.16 6:0.38 7:0.38 8:0.18 9:0.28 10:0.41 11:0.35 12:0.5 13:0.31 14:0.39 15:0.25 16:0.39 17:0.33 18:0.22 19:0.35 20:0.28 21:0.44 22:0.4 23:0.04 24:0.04 25:0.28 26:0.05 
7.395429682709496 1:0.39 2:0.3 3:0.37 4:0.32 5:0.18 6:0.38 7:0.38 8:0.26 9:0.27 10:0.34 11:0.33 12:0.37 13:0.36 14:0.23 15:0.21 16:0.44 17:0.38 18:0.13 19:0.23 20:0.36 21:0.48 22:0.95 23:0.71 24:0.52 25:0.56 26:0.59 
0.01649320416737132 1:0.52 2:0.48 3:0.28 4:0.33 5:0.21 6:0.36 7:0.35 8:0.33 9:0.38 10:0.29 11:0.34 12:0.3 13:0.32 14:0.31 15:0.37 16:0.41 17:0.39 18:0.26 19:0.3 20:0.37 21:0.49 22:0.83 23:0.01 24:0.29 25:0.71 26:0.01 
0.069890302396522 1:0.32 2:0.28 3:0.28 4:0.27 5:0.08 6:0.33 7:0.31 8:0.25 9:0.18 10:0.29 11:0.28 12:0.32 13:0.3 14:0.19 15:0.2 16:0.33 17:0.3 18:0.1 19:0.16 20:0.3 21:0.48 22:0.96 23:0.6 24:0.27 25:0.4 26:0.5 
0.6498565790704585 1:0.43 2:0.31 3:0.28 4:0.28 5:0.22 6:0.38 7:0.38 8:0.24 9:0.27 10:0.3 11:0.3 12:0.4 13:0.28 14:0.23 15:0.32 16:0.46 17:0.39 18:0.13 19:0.17 20:0.35 21:0.49 22:0.79 23:0.11 24:0.25 25:0.07 26:0.37 
0.1564462893975118 1:0.35 2:0.48 3:0.34 4:0.28 5:0.29 6:0.4 7:0.35 8:0.31 9:0.33 10:0.29 11:0.27 12:0.4 13:0.31 14:0.28 15:0.37 16:0.49 17:0.46 18:0.15 19:0.26 20:0.33 21:0.48 22:0.89 23:0.06 24:0.14 25:0.08 26:0.01 
0.598377734268484 1:0.45 2:0.39 3:0.28 4:0.29 5:0.18 6:0.36 7:0.35 8:0.27 9:0.33 10:0.32 11:0.33 12:0.34 13:0.35 14:0.29 15:0.28 16:0.35 17:0.34 18:0.25 19:0.28 20:0.36 21:0.47 22:0.98 23:0.09 24:0.31 25:0.12 26:0.33 
0.3866216460113123 1:0.31 2:0.28 3:0.29 4:0.27 5:0.07 6:0.32 7:0.31 8:0.24 9:0.17 10:0.3 11:0.28 12:0.32 13:0.3 14:0.19 15:0.19 16:0.33 17:0.29 18:0.1 19:0.16 20:0.3 21:0.49 22:0.93 23:0.61 24:0.22 25:0.38 26:0.49 
0.3329864732439884 1:0.31 2:0.3 3:0.26 4:0.27 5:0.07 6:0.34 7:0.35 8:0.2 9:0.18 10:0.27 11:0.26 12:0.34 13:0.26 14:0.15 15:0.15 16:0.3 17:0.26 18:0.04 19:0.14 20:0.27 21:0.46 22:0.97 23:0.69 24:0.57 25:0.05 26:0.68 
0.08983725864282115 1:0.42 2:0.29 3:0.32 4:0.25 5:0.29 6:0.3 7:0.26 8:0.36 9:0.3 10:0.42 11:0.41 12:0.22 13:0.42 14:0.45 15:0.32 16:0.41 17:0.4 18:0.36 19:0.38 20:0.4 21:0.54 22:0.02 23:0.05 24:0.06 25:0.95 26:0.04 
0.02878158165703665 1:0.4 2:0.46 3:0.47 4:0.42 5:0.19 6:0.57 7:0.61 8:0.23 9:0.35 10:0.29 11:0.36 12:0.58 13:0.36 14:0.19 15:0.25 16:0.51 17:0.4 18:0.11 19:0.18 20:0.3 21:0.41 22:0.98 23:0.88 24:0.8 25:0.38 26:0.75 
0.001472633723656937 1:0.46 2:0.43 3:0.27 4:0.26 5:0.18 6:0.34 7:0.27 8:0.25 9:0.26 10:0.19 11:0.21 12:0.33 13:0.24 14:0.27 15:0.37 16:0.51 17:0.39 18:0.16 19:0.22 20:0.23 21:0.45 22:0.95 23:0 24:0.51 25:0.51 26:0.73 
0.0957694406960722 1:0.46 2:0.43 3:0.4 4:0.35 5:0.19 6:0.44 7:0.47 8:0.18 9:0.31 10:0.32 11:0.38 12:0.46 13:0.25 14:0.27 15:0.17 16:0.34 17:0.25 18:0.23 19:0.36 20:0.28 21:0.44 22:0.93 23:0.08 24:0.03 25:0.6 26:0.64 
0.8105105975290705 1:0.39 2:0.41 3:0.46 4:0.47 5:0.24 6:0.49 7:0.51 8:0.27 9:0.41 10:0.33 11:0.31 12:0.45 13:0.37 14:0.28 15:0.35 16:0.52 17:0.46 18:0.22 19:0.28 20:0.35 21:0.47 22:0.95 23:0.73 24:0.58 25:0.06 26:0.7 
-2.603380635752774 1:0.44 2:0.37 3:0.4 4:0.34 5:0.15 6:0.41 7:0.41 8:0.3 9:0.28 10:0.35 11:0.35 12:0.44 13:0.36 14:0.29 15:0.26 16:0.52 17:0.45 18:0.14 19:0.29 20:0.4 21:0.47 22:0.93 23:0.67 24:0.03 25:0.03 26:0.82 
-1.626134869162203 1:0.37 2:0.3 3:0.35 4:0.29 5:0.15 6:0.37 7:0.36 8:0.25 9:0.27 10:0.32 11:0.3 12:0.35 13:0.34 14:0.25 15:0.2 16:0.4 17:0.34 18:0.14 19:0.25 20:0.34 21:0.47 22:0.53 23:0.51 24:0.15 25:0.68 26:0.79 
-0.8544582586804955 1:0.47 2:0.35 3:0.38 4:0.34 5:0.16 6:0.4 7:0.41 8:0.31 9:0.27 10:0.35 11:0.35 12:0.42 13:0.35 14:0.28 15:0.26 16:0.51 17:0.47 18:0.15 19:0.29 20:0.4 21:0.47 22:0.98 23:0.9 24:0.11 25:0.1 26:0.11 
-0.8914435613564259 1:0.39 2:0.29 3:0.34 4:0.29 5:0.2 6:0.38 7:0.36 8:0.21 9:0.23 10:0.32 11:0.33 12:0.36 13:0.38 14:0.24 15:0.26 16:0.44 17:0.4 18:0.14 19:0.22 20:0.35 21:0.49 22:0.97 23:0.59 24:0.05 25:0.36 26:0.06 
-8 1:0.52 2:0.25 3:0.28 4:0.31 5:0.13 6:0.27 7:0.35 8:0.38 9:0.23 10:0.29 11:0.27 12:0.31 13:0.3 14:0.24 15:0.35 16:0.48 17:0.51 18:0.14 19:0.18 20:0.41 21:0.53 22:0.99 23:0.69 24:0.04 25:0.2 26:0.14 
-2.856414525701702 1:0.39 2:0.29 3:0.36 4:0.3 5:0.19 6:0.37 7:0.36 8:0.26 9:0.25 10:0.32 11:0.32 12:0.35 13:0.36 14:0.25 15:0.2 16:0.44 17:0.37 18:0.14 19:0.23 20:0.33 21:0.49 22:0.86 23:0.51 24:0.04 25:0.14 26:0.08 
-1.55391076002641 1:0.42 2:0.32 3:0.35 4:0.31 5:0.17 6:0.38 7:0.37 8:0.27 9:0.25 10:0.34 11:0.34 12:0.38 13:0.37 14:0.23 15:0.22 16:0.45 17:0.42 18:0.12 19:0.23 20:0.37 21:0.48 22:0.97 23:0.85 24:0.53 25:0.08 26:0.69 
-0.436205804470458 1:0.41 2:0.32 3:0.38 4:0.3 5:0.18 6:0.4 7:0.38 8:0.26 9:0.26 10:0.32 11:0.32 12:0.38 13:0.36 14:0.23 15:0.23 16:0.47 17:0.39 18:0.13 19:0.22 20:0.35 21:0.47 22:0.93 23:0.75 24:0.39 25:0.03 26:0.01 
-2.228030333035954 1:0.39 2:0.36 3:0.35 4:0.32 5:0.18 6:0.4 7:0.38 8:0.26 9:0.24 10:0.34 11:0.33 12:0.41 13:0.35 14:0.26 15:0.26 16:0.42 17:0.39 18:0.12 19:0.24 20:0.36 21:0.46 22:0.96 23:0.25 24:0.36 25:0.01 26:0.4 
-1.498911407201462 1:0.46 2:0.38 3:0.4 4:0.36 5:0.19 6:0.43 7:0.45 8:0.32 9:0.28 10:0.35 11:0.35 12:0.44 13:0.36 14:0.28 15:0.32 16:0.53 17:0.46 18:0.17 19:0.29 20:0.4 21:0.48 22:0.98 23:0.68 24:0.02 25:0.04 26:0.04 
-2.522480791788272 1:0.41 2:0.32 3:0.38 4:0.31 5:0.18 6:0.39 7:0.38 8:0.26 9:0.26 10:0.32 11:0.32 12:0.38 13:0.36 14:0.23 15:0.23 16:0.47 17:0.39 18:0.13 19:0.22 20:0.35 21:0.47 22:0.85 23:0.79 24:0.47 25:0.05 26:0.03 
-3.194954509818133 1:0.39 2:0.35 3:0.38 4:0.32 5:0.18 6:0.42 7:0.42 8:0.24 9:0.28 10:0.28 11:0.29 12:0.41 13:0.35 14:0.22 15:0.21 16:0.45 17:0.36 18:0.13 19:0.22 20:0.31 21:0.44 22:0.86 23:0.68 24:0.12 25:0.08 26:0.72 
-3.70261194882311 1:0.43 2:0.36 3:0.35 4:0.34 5:0.19 6:0.42 7:0.41 8:0.32 9:0.26 10:0.38 11:0.36 12:0.42 13:0.35 14:0.3 15:0.31 16:0.47 17:0.44 18:0.16 19:0.3 20:0.39 21:0.45 22:0.96 23:0.26 24:0.22 25:0.01 26:0.03 
-2.06964440220289 1:0.41 2:0.3 3:0.39 4:0.33 5:0.18 6:0.36 7:0.36 8:0.28 9:0.24 10:0.33 11:0.32 12:0.36 13:0.36 14:0.24 15:0.19 16:0.47 17:0.43 18:0.12 19:0.23 20:0.35 21:0.49 22:0.96 23:0.84 24:0.1 25:0.01 26:0.23 
-1.684079793614735 1:0.45 2:0.36 3:0.4 4:0.34 5:0.18 6:0.42 7:0.43 8:0.3 9:0.26 10:0.35 11:0.35 12:0.43 13:0.36 14:0.28 15:0.28 16:0.51 17:0.46 18:0.17 19:0.27 20:0.39 21:0.47 22:0.94 23:0.91 24:0.09 25:0.2 26:0.87 
-4.039426674021217 1:0.39 2:0.29 3:0.39 4:0.31 5:0.17 6:0.38 7:0.36 8:0.28 9:0.25 10:0.34 11:0.33 12:0.36 13:0.37 14:0.24 15:0.2 16:0.45 17:0.41 18:0.12 19:0.23 20:0.36 21:0.48 22:0.99 23:0.87 24:0.52 25:0.63 26:0.57 
-3.64325781794394 1:0.43 2:0.35 3:0.33 4:0.33 5:0.18 6:0.4 7:0.4 8:0.31 9:0.24 10:0.35 11:0.35 12:0.4 13:0.35 14:0.26 15:0.29 16:0.47 17:0.41 18:0.14 19:0.26 20:0.38 21:0.49 22:0.94 23:0.34 24:0.3 25:0.1 26:0.48 
-5.9725467980506 1:0.39 2:0.28 3:0.37 4:0.29 5:0.18 6:0.36 7:0.34 8:0.27 9:0.24 10:0.35 11:0.33 12:0.34 13:0.37 14:0.22 15:0.21 16:0.44 17:0.4 18:0.11 19:0.21 20:0.37 21:0.51 22:0.95 23:0.7 24:0.48 25:0.6 26:0.45 
-1.964033451400777 1:0.43 2:0.31 3:0.35 4:0.27 5:0.18 6:0.37 7:0.35 8:0.28 9:0.26 10:0.31 11:0.31 12:0.36 13:0.34 14:0.25 15:0.21 16:0.45 17:0.38 18:0.14 19:0.25 20:0.34 21:0.48 22:0.94 23:0.5 24:0.04 25:0.69 26:0.76 
-1.651811962556593 1:0.41 2:0.3 3:0.35 4:0.28 5:0.2 6:0.36 7:0.35 8:0.26 9:0.23 10:0.34 11:0.34 12:0.35 13:0.37 14:0.22 15:0.22 16:0.45 17:0.39 18:0.11 19:0.2 20:0.37 21:0.5 22:0.96 23:0.79 24:0.08 25:0.74 26:0.05 
-1.851273298888418 1:0.42 2:0.3 3:0.36 4:0.33 5:0.17 6:0.39 7:0.39 8:0.28 9:0.24 10:0.33 11:0.32 12:0.37 13:0.35 14:0.23 15:0.23 16:0.46 17:0.42 18:0.11 19:0.22 20:0.36 21:0.48 22:0.97 23:0.82 24:0.5 25:0.06 26:0.64 
-4.110606249943361 1:0.38 2:0.3 3:0.35 4:0.29 5:0.2 6:0.38 7:0.37 8:0.23 9:0.25 10:0.31 11:0.32 12:0.35 13:0.37 14:0.24 15:0.22 16:0.43 17:0.36 18:0.14 19:0.23 20:0.33 21:0.48 22:0.95 23:0.47 24:0.28 25:0.24 26:0.68 
-2.104007871677873 1:0.53 2:0.35 3:0.33 4:0.37 5:0.19 6:0.41 7:0.48 8:0.29 9:0.25 10:0.29 11:0.28 12:0.45 13:0.26 14:0.21 15:0.58 16:0.53 17:0.5 18:0.13 19:0.2 20:0.34 21:0.46 22:0.98 23:0.05 24:0.02 25:0.01 26:0.84 
-6.440705446211186 1:0.41 2:0.36 3:0.32 4:0.3 5:0.17 6:0.4 7:0.38 8:0.3 9:0.23 10:0.34 11:0.34 12:0.4 13:0.34 14:0.28 15:0.26 16:0.45 17:0.4 18:0.14 19:0.27 20:0.37 21:0.5 22:0.87 23:0.19 24:0.24 25:0.04 26:0.17 
